291 400
兽 -0.0036557133 -0.0012987906 0.00011868978 -0.0094923703 -0.0036603992 0.0003494285 0.0088879876 -0.005518869 -0.012116922 0.0018472967 0.0036506031 0.013715973 0.0024349864 0.010147977 -0.00013733334 -0.0021012309 0.00045516761 -0.00071659568 0.0069751944 0.0035940593 -0.00013232784 -0.0062677744 0.0023630192 -0.0071088653 -0.0040403917 0.0052127605 0.0032601829 0.0015767585 0.0062299124 -0.0013544919 0.0040176599 -8.6626984e-05 -0.00036289962 0.0097096739 0.0085789338 0.0037276258 0.0039983606 0.0033282952 0.012396056 -0.00094298186 -0.0044277678 -0.0024636122 0.00064151851 -0.0010995656 -0.0048449961 0.013535443 0.015084536 0.0035869915 0.0004050461 0.0046268771 -0.0041516186 0.0078913178 -0.0082731517 0.0023503057 -0.0052499608 -0.0020044737 0.010264843 0.0070254155 -0.0025609978 0.00053843926 0.0016168293 -0.0013181573 0.003652018 0.0026347707 -0.0039351881 -0.0068752519 0.014380731 -0.0027220484 0.0048028543 -0.0020782158 -0.011209227 0.0011942751 -0.00057439896 -0.0024378262 0.0070759011 0.0055480683 -0.0054620127 0.006012829 -0.0068031736 -0.0087362584 0.010066893 -0.0035410668 0.0062601035 -0.013549094 0.010315527 -0.0006102855 -0.018675836 -0.0032775823 0.0053534871 -0.0028908404 -0.0075061265 -0.0055992128 -0.0010759399 0.00073388679 0.0022298188 -0.01338189 0.0061982023 0.00031458915 -0.0057090004 0.0096125035 0.0061291838 -0.0025591953 -0.0086954562 -0.0022018771 -0.0036571177 -0.0011595263 0.014798257 0.016738066 0.00049778831 0.0076616881 0.011647706 0.0028154594 -0.0097813448 0.001806144 -0.00064473721 0.0030825827 0.014615325 -0.0078784861 -0.0054434943 -0.0024332656 0.014393087 0.0021004474 0.00075472513 0.0017654151 0.00084968825 -0.0029294072 0.0043578097 0.0028598753 -0.012696746 0.0070461268 0.016356193 -0.00075342908 -0.00099153887 -0.00341012 -0.0038969154 -0.0074479021 -0.02934009 0.010905459 -0.0088964133 -0.0035224895 0.0031492678 -0.004735026 0.0030250342 0.0033016377 0.0039117076 -0.003142213 -0.003350836 -0.0087221581 0.01359959 0.0096657239 0.016769163 0.0022586619 -0.008668392 -0.013960886 0.0031970658 -0.0066816127 0.0014350553 0.00020816798 0.0017207947 0.0033649665 -0.003409087 0.0042300047 -0.0054506254 -0.0015380072 0.003575932 -0.0091426019 0.010047813 -0.0055454983 0.0083440198 -0.00039609274 0.012202589 -0.0039566373 0.01062616 -0.005552771 0.0036214606 -0.0034110416 -0.016330842 0.00026965886 -0.00024044706 0.014614097 0.00074410177 0.0028761995 -0.0096973609 -0.0090163955 0.0090128854 -0.0034039589 0.012390683 0.0069297221 -0.0046713552 0.013928606 0.0013129943 -0.0006838867 -0.0031661901 -0.011844835 -0.00090691989 -0.0052823173 -0.007205429 0.014428124 -0.00086033269 0.0073327678 -0.0077529293 0.013201589 -0.0073670535 -0.0085134208 -0.011105424 -0.011038014 0.0027145473 0.0018236204 0.0093360813 -0.0050025424 -0.00053073268 -0.0048929802 -0.012825011 -0.0071642301 0.0090131452 -0.0081920084 0.0065268204 -0.0029874456 -0.0077130841 -0.0028535225 0.0011146741 0.00976054 0.0028353164 0.0073390105 -0.007690256 -0.00010373627 0.00079585984 -0.0072044502 -0.011119291 -0.0083546313 -0.0054071727 -0.0029507021 -0.012152726 -0.0057579796 -0.0012477705 0.011776525 -0.0098945154 -0.0027633123 0.010729219 -0.0055709714 0.0041307574 0.012243555 0.0034079151 0.014632548 -0.0041031823 -0.011582792 -0.0035979296 -0.00033634182 -0.0046851039 0.0058122426 -0.014399608 -0.0086788395 0.016134845 0.0025279787 0.00022761857 0.0025342514 -0.012674646 0.0088748317 -0.017039638 -0.0030170206 0.0098810121 1.5240394e-05 -0.0030886845 -0.005079153 0.0026615059 -0.0018577081 0.0028835922 -0.010387558 -0.00011169171 0.00092632452 0.0015626109 0.00049166661 0.0024755155 0.016872782 -0.016614202 -0.010287576 0.0030868377 -0.013576135 -0.0063379472 -0.00033570183 -0.0044542258 -0.013742762 0.0013326467 -0.0023184274 0.0053712367 0.020770218 -0.0038100767 -0.003795116 0.0032262348 0.0096151959 0.0046204594 0.0020174345 0.0032148247 0.00035651706 0.0069720219 -0.0039609834 -0.011432816 -0.0098510729 0.0017297053 -0.0033885979 -0.001424833 -0.0046574068 -0.0031089468 -0.00095861498 0.0016854753 0.0043474738 -0.0064059477 -0.014203533 -0.0010789377 0.017014354 -0.0083071887 0.00094276026 -0.0092939734 0.0049300073 0.0021917848 0.001202152 -0.0047015389 -0.011337585 -0.0022048657 -0.0059106913 0.0057188547 0.0036027234 -0.00035536994 -0.00049594464 -3.8858925e-05 0.00013539917 -0.0010985228 0.0058065024 -0.011340142 -0.0024382779 -0.0055784606 0.029931953 -0.0025419998 0.0088563934 0.0058262357 0.0081134504 0.019271668 0.019285332 -0.007845683 0.010343309 0.0015317827 -0.0098205321 0.008887819 0.012286642 0.0061903358 -0.010602789 -0.024504608 -0.0020044064 0.0030124551 -0.011850159 -0.0033856847 0.0055991677 -0.01441099 0.0037284866 0.00036954513 0.0034776349 0.0051898831 0.011133414 -2.9828163e-05 0.0039023308 -0.0028304374 -0.00068757305 -0.0026218609 -0.0079624671 -0.0022421991 0.0054397066 -0.002937428 0.0039698747 -0.014111599 0.0018477803 -0.0070103426 -0.019771822 0.0043320046 -0.012496185 0.00058125926 -0.0031265912 0.0058302796 -0.013085973 0.011669447 -0.0051632519 0.011079662 -0.010152741 0.0075752423 -0.0084081283 -0.0074679549 0.0017599085 -0.0015414057 -0.0022986939 -0.011591713 -0.0082689393 0.0039591403 0.0096157407 0.0065732948 0.0088109756 -0.0040236409 -0.0052426751 0.0055993856 0.0043399064 0.002949802 -0.013017946
数码 -0.0015449352 -0.00061711151 0.0011574004 -0.0085521219 -0.0020106263 -0.0010176237 0.0094115064 -0.0031471739 -0.011808507 0.00067766733 0.0052672001 0.014882733 0.002121829 0.01065981 0.0016854447 -0.0031815043 0.0020838738 -0.002052861 0.0077137081 0.0018609355 0.00016159445 -0.008478485 0.0024011019 -0.0085711507 -0.004048191 0.00366561 0.0044405381 0.002267329 0.0071255695 -0.0013051757 0.0030650659 -0.00080386939 0.00074706256 0.009318877 0.0093875267 0.0044568647 0.0037595332 0.0052543064 0.01306146 0.001169691 -0.0051004458 -0.00081547187 0.0015587106 -0.0034022331 -0.0044354266 0.013106074 0.014624017 0.0028501137 0.0010007087 0.0034556172 -0.0034629032 0.0060395584 -0.0085711917 0.00096726324 -0.0047101905 -0.0024728996 0.012463565 0.0082068816 -0.0031100323 0.0010082274 0.0016446155 -0.00041137997 0.0042454642 0.0016530326 -0.0036568576 -0.007975501 0.013657977 -0.00040719655 0.0041636666 -0.0017961045 -0.012301494 0.0018607484 0.00084036868 -0.0022535797 0.0069832248 0.005953182 -0.006903016 0.0081645641 -0.0084003219 -0.0092373034 0.0092176069 -0.0026782353 0.0075045456 -0.015557054 0.010509452 -0.0018968653 -0.017616536 -0.0031990276 0.0071712537 -0.0019754078 -0.00902203 -0.0053231143 -0.0027520841 0.0020800726 0.0011074761 -0.01300063 0.0070715179 0.00043717303 -0.0044889804 0.010363315 0.0061431793 -0.0014276996 -0.0083801402 -0.0010870841 -0.0031633989 -0.0026547434 0.013773408 0.016197154 0.0021530695 0.0083314953 0.011460995 0.004410299 -0.011029691 0.00047086939 -0.00026419931 0.0016740971 0.015099449 -0.0075269775 -0.0039510797 -0.0050626281 0.013429003 0.0023656825 0.0011078479 0.00089197891 0.0011805245 -0.0019748062 0.0048498898 0.0041798064 -0.012582943 0.0082838014 0.017002927 -0.0021830322 9.3614188e-05 -0.0028224294 -0.0042778696 -0.0080410447 -0.030116368 0.012313349 -0.0090186251 -0.005246893 0.0040778341 -0.0043274132 0.0029742175 0.0023006101 0.0040135793 -0.0037876959 -0.0027133429 -0.0096618086 0.014599991 0.0097474027 0.015926858 0.00083458988 -0.0075264093 -0.014801323 0.0025326114 -0.0048410627 0.0022530686 -7.0056129e-05 0.0010220335 0.0030532496 -0.0037164702 0.006878437 -0.0053521944 -0.0021675408 0.0050970241 -0.010645451 0.0099829389 -0.006808165 0.0085934205 -0.001145209 0.010392554 -0.0040060747 0.0089087011 -0.0074621821 0.0057883714 -0.0028409872 -0.017433535 0.0015887538 -0.00022742966 0.014001034 0.0024024846 0.0027113897 -0.011191134 -0.010479625 0.010746144 -0.0034974446 0.013391183 0.00861682 -0.0049032811 0.014145701 0.00085301755 -0.0010437036 -0.0023429983 -0.012806696 -0.0021135812 -0.0046961447 -0.0081413956 0.01407585 6.79531e-05 0.0089199794 -0.007444175 0.011860968 -0.0071023582 -0.0097772973 -0.013280179 -0.011125015 0.0018815398 0.0021566029 0.0094606671 -0.0049019149 -0.0013086683 -0.0056862812 -0.013774536 -0.0070824618 0.0076656342 -0.0076926607 0.0053730719 -0.0037257357 -0.0091559533 -0.0029273632 0.002230322 0.011833431 0.0032039848 0.0073103695 -0.0073526851 -0.00064050814 -0.00098079653 -0.0064269425 -0.010306094 -0.008471 -0.0064015458 -0.0035428994 -0.012769375 -0.0058928127 -0.0011650564 0.012591209 -0.01102371 -0.0027304664 0.010970578 -0.0055727321 0.0046648229 0.01218458 0.0031430365 0.014134979 -0.0039895065 -0.014209628 -0.0026225273 -7.9946745e-05 -0.0058000912 0.0052219741 -0.014397575 -0.0098151928 0.015282161 0.0030557872 0.0010091321 0.002391957 -0.013427598 0.0091162287 -0.015904913 -0.0020744547 0.010675485 0.0013598495 -0.0026159473 -0.0066158841 0.0043055955 -0.0034770253 0.0021556609 -0.011779306 0.00036310972 0.0021329676 0.0015881358 -0.00054611743 0.0041892477 0.017272124 -0.015776861 -0.010744285 0.0026723181 -0.013892882 -0.006864802 -0.0010777026 -0.0029368289 -0.01492434 0.001596125 -0.0044695358 0.0048097721 0.019876175 -0.0022024708 -0.0052390825 0.00481231 0.010634803 0.0054814494 0.0035330907 0.0040013585 -0.00024277609 0.006980028 -0.002759485 -0.012900463 -0.0097900238 0.0014614144 -0.0052584442 0.00037460195 -0.0037737302 -0.0034916173 -0.0013306489 0.0012970762 0.0044132308 -0.0063521392 -0.014212285 -0.00075273815 0.016126325 -0.0084792161 0.002367974 -0.0080968998 0.0054034144 0.0012013196 0.00087665842 -0.0064743417 -0.010033242 -0.00096307945 -0.0053374507 0.0086483229 0.0037568752 -0.00063825905 -0.00067511096 -8.0710306e-05 -0.00043685595 -0.0013358776 0.0066833096 -0.01207369 -0.0036935532 -0.0057283523 0.031642225 -0.001661411 0.0097002387 0.0045183674 0.0069698561 0.021330524 0.019560987 -0.0081162574 0.011214202 0.00032089779 -0.0098515628 0.010811425 0.013657366 0.0081779622 -0.010517582 -0.024193287 -0.00049580919 0.0022311958 -0.012219504 -0.0030367489 0.0054929601 -0.017722663 0.002897352 -0.00015554139 0.00432275 0.0051848409 0.009981324 -0.00060826074 0.0060999487 -0.0049756239 -0.00041799498 -0.0020445413 -0.008855558 -0.0019552906 0.0054792077 -0.0022465517 0.0042818044 -0.013141712 0.0021596663 -0.0095573878 -0.020805413 0.0028152519 -0.012629895 0.0026369945 -0.0045926608 0.0072456133 -0.014155526 0.010180402 -0.0062097888 0.011341213 -0.010176718 0.007813883 -0.0089815818 -0.0087073892 0.0033089931 -0.0018517859 -0.0027357689 -0.01205094 -0.0090275602 0.0026406818 0.0099264346 0.0085723642 0.008877377 -0.0061836536 -0.0034819781 0.0069299364 0.0029488455 0.0035338996 -0.015218717
在 -0.0025078356 -0.0023427641 0.00082700112 -0.0055879517 -0.0023595463 0.0004110685 0.0063204048 -0.0019078655 -0.0080839563 0.00094151165 0.0023521055 0.0093556745 -0.00039041636 0.0060831225 0.00046210189 -0.0030849869 0.0015525928 -0.00079488504 0.0047633173 0.0016580864 -0.00027229101 -0.0051397705 0.002701642 -0.0046635638 -0.0028880828 0.0033763314 0.0019101397 -0.00041561443 0.0029133244 -0.00078306696 0.0031607356 -0.00071663549 0.0005343284 0.0077421009 0.004683408 0.0014929767 0.0024915698 0.0028699527 0.0084809894 0.00044835359 -0.0036031136 -0.0021468126 0.0010635706 -0.0019709871 -0.004067753 0.0089135431 0.01005492 0.0031671871 -0.0008285935 0.0032407609 -0.0019688765 0.0056945286 -0.007065041 0.001796206 -0.0040838579 -0.00089710922 0.0077738096 0.0052749868 -0.0024082293 0.00045036589 0.0015950117 -8.5977663e-05 0.0027548231 0.0021719013 -0.0018262852 -0.0042375494 0.0087934695 -0.00056803797 0.0041141948 -0.0020456174 -0.0080297552 0.0010397526 -0.00026734205 -0.0024055773 0.0031657752 0.0039664572 -0.0044361446 0.0050061415 -0.0059226346 -0.0072861477 0.0049803792 -0.0021623832 0.0043153712 -0.009358556 0.0071014841 -0.0023843101 -0.013619133 -0.0028152587 0.00483259 -0.00014971057 -0.0047854721 -0.0037343116 -0.00182484 0.0017544342 0.0021616439 -0.0097195264 0.0050452305 0.00030253502 -0.0023150938 0.0071016639 0.0043101353 -0.00056814455 -0.0056427638 -0.0012105721 -0.0015745043 -0.0019810761 0.0095174927 0.011779577 0.001012427 0.0060814 0.0071858154 0.0033637225 -0.0077814097 0.0010802762 -0.0011874993 0.0022942962 0.0098228808 -0.0054790904 -0.001854946 -0.0023046273 0.0081187375 7.4534153e-05 0.00055355835 0.0019835432 0.0008705433 -0.0017995504 0.0025007718 0.0010901644 -0.0079861768 0.0065291305 0.010927333 0.00011622253 -0.0013349374 -0.0013496873 -0.00078940205 -0.0057549076 -0.019540329 0.008534085 -0.0041882591 -0.003888929 0.0024858853 -0.0037507673 0.00031615642 0.0014858675 0.002172611 -0.0020538766 -0.0035978588 -0.0066496781 0.0090704178 0.0068811863 0.011622339 -0.00047611768 -0.0060775522 -0.0083042998 0.0016656274 -0.0046136794 0.0017928407 0.00094605796 0.00095414324 0.0025839619 -0.002016728 0.0027994106 -0.0049880906 -0.0019731384 0.0027364388 -0.0061651692 0.0079268543 -0.0036214821 0.0037598924 -0.00055161829 0.0079080593 -0.0043512047 0.0066507831 -0.0037810139 0.00435055 -0.0018625917 -0.012366262 -3.1491618e-05 2.2996086e-05 0.0094084851 0.00076549215 0.0016744361 -0.0073619825 -0.0056124181 0.0071537006 -0.0030725361 0.0082147606 0.0043420205 -0.0034987172 0.0096550277 0.00063914858 -0.001336675 -0.0029538358 -0.0075740931 -0.0009336737 -0.0037659653 -0.0055809948 0.010181469 -0.00088580442 0.0056652245 -0.0039398526 0.007829099 -0.0053162654 -0.0061816489 -0.0085210679 -0.0071071344 0.001476498 0.0019083298 0.0055277715 -0.0024814368 -9.4221177e-05 -0.0043280469 -0.0089409463 -0.0047001215 0.0069917617 -0.0053113815 0.002919723 -0.0016479231 -0.0053939102 -0.0030525152 0.00015048237 0.0066369674 0.00026461045 0.0043150894 -0.0057972521 -0.00030390717 7.180839e-05 -0.0052322135 -0.006731574 -0.0055275955 -0.0051464224 -0.00066850637 -0.0075072474 -0.0040534623 -0.0010535672 0.0075738817 -0.0061365096 -0.0031388467 0.0055189137 -0.0047809631 0.0032000039 0.0084831864 0.0018385666 0.0086885914 -0.0022007325 -0.0086742872 -0.0020781998 0.00024669786 -0.0032090931 0.003712578 -0.0098249149 -0.0065556518 0.0090912571 0.0010744518 -0.00047909949 0.0012512857 -0.0096443202 0.0046431287 -0.011412569 -0.00033163556 0.0053926106 -0.0010739967 -0.0025175428 -0.0024066728 0.0023292124 -0.0017447002 0.00055423717 -0.0079675261 -0.00044811951 0.0016613316 0.00020871437 0.00074212672 0.0027753534 0.011183816 -0.010050422 -0.0064671538 0.0027273719 -0.0081022624 -0.0043093292 0.00014317683 -0.0025385527 -0.0079530738 0.0017807006 -0.0024726498 0.002253142 0.013796868 -0.00077228626 -0.0016062113 0.0017582518 0.0051185321 0.0015365597 0.0017448025 0.00069635728 0.00049910275 0.0047010132 -0.0032912702 -0.0073041734 -0.0067164139 -0.00054778875 -0.0028238236 0.00025229901 -0.0031508913 -0.0034368467 -0.0025384794 0.00040353293 0.0039110254 -0.0056638224 -0.0085155908 -0.0013188636 0.0101467 -0.0041650985 0.0019189492 -0.0052851834 0.0032695686 0.00050387118 0.0025203009 -0.0031704507 -0.007467377 -0.00037872195 -0.0042596729 0.0042594834 0.0025278174 0.0015798616 0.0011291 -0.00046357565 -0.0013254276 -0.0015449307 0.0042607198 -0.008273744 -0.0029911508 -0.0043693213 0.020760486 -0.0015929529 0.006892968 0.0026812006 0.0056016957 0.013032457 0.011589557 -0.0056010145 0.0071509373 0.00093381503 -0.0054642726 0.0075540687 0.0081587816 0.0059202034 -0.0079703955 -0.017684285 -0.0017483169 0.003108558 -0.0073678219 -0.0028662474 0.0043522972 -0.010927982 0.0018554198 0.00081001408 0.0031921009 0.003636278 0.0079224911 -0.0014058631 0.0038905139 -0.0013196868 0.00033894743 -0.0017042375 -0.0060012797 -0.0026980506 0.0044729435 -0.0013065061 0.0016089672 -0.0095018223 0.0017211606 -0.0066569387 -0.013124016 0.0012985397 -0.0096214032 0.00014941528 -0.0019424675 0.0042641768 -0.0099040214 0.0065023727 -0.0028403972 0.0058087786 -0.0060722702 0.0043173255 -0.0059535392 -0.0055255713 0.0024553298 -0.0018693818 -0.00018129169 -0.006635265 -0.0059994482 0.0028508764 0.0047334102 0.0060056946 0.0058099371 -0.0044441079 -0.0020839509 0.005097576 0.0029897736 0.0022596971 -0.0084499866
年 -0.0017468458 5.8886242e-05 0.0013640882 -0.0055813063 -0.00052759092 0.00084575784 0.0062078829 -0.0029773288 -0.0075736316 0.00038970995 0.0017883802 0.0084871743 0.00034462762 0.0052426392 6.1668987e-05 -0.001914648 0.00049199996 -0.00038622803 0.0038401978 0.0023838119 0.00059990981 -0.0034981999 0.0014792221 -0.0045332625 -0.0028698193 0.0031563372 0.0021007995 0.0016652633 0.0042884653 0.00014934286 0.0027742169 -0.00035714058 0.001490398 0.005359449 0.0048269155 0.0021089616 0.0024350793 0.0029362103 0.0073763044 -0.00020309527 -0.0037144353 -0.0013267907 0.00081049785 -0.00077010575 -0.0039352649 0.0089154998 0.0099316975 0.0018150781 -0.00085024396 0.0033321623 -0.0017792567 0.0033924941 -0.0050787874 0.00098517572 -0.0024863735 -3.982916e-05 0.0054826648 0.0043238867 -0.0015117266 0.00034041045 0.0018196914 -3.9821392e-05 0.0027299561 0.00034165161 -0.003554831 -0.0028730261 0.0075961906 -0.0010334606 0.0041123871 -0.0020481944 -0.0069862935 0.0017130023 -0.00049799064 -0.0025294647 0.0043512117 0.0029503356 -0.0024599743 0.0051751253 -0.0041463398 -0.0067769443 0.0046546548 -0.002791021 0.0029900232 -0.0085013732 0.006764641 -0.00030410528 -0.010172368 -0.0027437361 0.00259565 -0.00063128705 -0.0037143517 -0.003494123 -0.00021730587 0.00072625896 7.3976924e-05 -0.0083988216 0.0032707406 -0.00023167572 -0.0030711642 0.0059469799 0.0048916489 -0.0014862807 -0.00467757 -0.0022937194 -0.0013407231 -0.0020719711 0.0073984042 0.0088622337 -0.00020346133 0.0043471167 0.007635063 0.0023346874 -0.0056420187 0.00055311859 -0.0012748631 0.0022047744 0.0074711242 -0.0050947913 -0.0026539036 -0.0018921298 0.0074986764 0.0001962994 0.00036957761 0.00023181256 0.0013159077 -0.0024154081 0.0031599964 0.0020412391 -0.0071160435 0.0044153663 0.009993962 -0.00025468308 -0.0014222178 -0.0023880808 -0.0011241019 -0.0062417504 -0.016906878 0.0062647201 -0.0046138186 -0.0016962022 0.0029257964 -0.0014950027 0.00086718018 0.0021645098 0.0016900136 -0.0013221971 -0.0021002342 -0.0064460514 0.0073894258 0.0052617523 0.010345974 -0.00059671095 -0.0041163643 -0.0089563821 0.00056719349 -0.0032670605 0.0018663147 0.001793432 0.0011953323 0.0005423195 -0.002157483 0.0036615545 -0.0041871113 -0.0023504798 0.0022267597 -0.0066354452 0.0072385613 -0.0031399631 0.0056943311 -0.0015247306 0.0065835807 -0.0028403678 0.0053304578 -0.0041667293 0.0034275178 -0.0018170458 -0.01118041 -0.0010523896 -0.00028759197 0.0085233683 0.001782092 0.001499777 -0.0071937735 -0.0067085498 0.0059995553 -0.0020349023 0.0084783044 0.0043531088 -0.0026618086 0.0083760433 0.0015159927 -0.0011003987 -0.0022541455 -0.0065456764 -0.0014465925 -0.0037907087 -0.005536438 0.0087335641 0.0011415994 0.0049122171 -0.0051835827 0.0070802602 -0.0033076713 -0.004686716 -0.0080797272 -0.0077779768 0.0013823234 0.0025913266 0.0055330875 -0.0036738063 0.00022041898 -0.0028345927 -0.0084501822 -0.0039100167 0.0057684714 -0.0040398859 0.0031668139 -0.00051170029 -0.0046314951 -0.002930905 0.00066876144 0.0066425977 0.0013340326 0.0056133759 -0.0045515508 0.00056444254 -8.3039915e-05 -0.0055436841 -0.0071369875 -0.0057383105 -0.0024763981 -0.0021379441 -0.006977173 -0.0035467818 0.0002689386 0.0061644698 -0.0053428221 -0.0022018466 0.0058247643 -0.0044679036 0.0026803701 0.0076905447 0.0031104709 0.0075538824 -0.0016932311 -0.0082020992 -0.0012719674 -0.00036570738 -0.0019892009 0.0028362006 -0.0087711131 -0.0048989998 0.0092975842 0.002539173 0.0005094962 0.0019495374 -0.0083332947 0.0049774246 -0.010183687 -0.0013959155 0.0044068643 0.0011943275 -0.0028811467 -0.0035900772 0.0021981739 -0.0015450789 0.0019261041 -0.0073546055 -0.0015631511 0.00028475351 0.00049728825 0.00032409863 0.00341526 0.0085870931 -0.010526097 -0.0059970156 0.0024003729 -0.0077799628 -0.0042699263 -0.00024114967 -0.0028290704 -0.0093026934 0.0020272194 -0.0026879401 0.0033507864 0.011966287 -0.002537692 -0.0017849082 0.0023676795 0.0066979909 0.0021700016 0.002408162 0.002805671 -0.0011126101 0.0043702405 -0.0022813443 -0.0082321307 -0.0062160012 0.0014581892 -0.0033626955 -0.0015067757 -0.002272418 -0.0017093193 -0.0016149392 0.0023384187 0.003045182 -0.0044920356 -0.0069053308 9.0420654e-05 0.0096629253 -0.0049856207 0.0011817964 -0.0060173725 0.0031044411 2.3910348e-05 -0.00011324221 -0.0047393511 -0.0065714326 -0.0014984806 -0.0029171964 0.0030390904 0.001179642 0.0015249143 0.00030789129 -0.0003709748 -0.0010564035 -0.00095834315 0.0035235647 -0.0073553631 -0.0029230984 -0.0041378974 0.018758941 -0.0022716706 0.0046839905 0.0030542715 0.0050553312 0.011740627 0.010956652 -0.0053619733 0.007251035 0.0014678171 -0.0053042336 0.0057688477 0.0064208712 0.0036401313 -0.0060305637 -0.0157465 -0.0010861062 0.0027929153 -0.0076988041 -0.002352078 0.0034763101 -0.010465651 0.0010864218 -0.0007199524 0.0037018268 0.0043061222 0.0069410438 -0.00016840127 0.0029315602 -0.0012932444 -0.0015502622 -0.0020341037 -0.004636738 -0.0014122353 0.0019933048 -0.0026530442 0.0017645976 -0.0087846546 5.7485704e-05 -0.0060568452 -0.011492747 0.0012966435 -0.0078760805 0.0014126693 -0.0032365015 0.0031228603 -0.0086664502 0.0069564898 -0.0031274497 0.0068361061 -0.00572791 0.0030451918 -0.0039536869 -0.004330507 0.00048313136 -0.0012318409 -0.0010040166 -0.0072361091 -0.0052906475 0.0015441747 0.0054056565 0.0043385397 0.0050227181 -0.0042332169 -0.0021863431 0.0038540121 0.0021504534 0.0028849624 -0.0074317232
是 -0.0014134829 -0.0015967204 0.0011171304 -0.004918823 -0.0029674112 3.3149983e-05 0.004362972 -0.0019712616 -0.0060520484 0.00073397259 0.0017829223 0.0090948418 -0.00027092782 0.0063835969 -0.00011238868 -0.0030118355 0.00047711376 -0.0019067728 0.0032313641 0.002399893 0.00087089068 -0.0055845426 0.0026538065 -0.0043358603 -0.0028519509 0.0019066418 0.0030647286 0.0011280663 0.0036642095 0.00065746158 0.0017171783 0.00049770245 0.0012023392 0.0042017461 0.0054085692 0.0028609501 0.00052265573 0.0033856817 0.0083369231 -0.00037714315 -0.0036664873 -0.00042969661 0.002166268 -0.00088388432 -0.0035967571 0.0065958104 0.008312582 0.0031531539 0.00038335859 0.0011681758 -0.002473606 0.0051616523 -0.0064231236 -6.986165e-05 -0.0026687677 -0.0022014203 0.005550154 0.0047929054 -0.002180255 0.00020963143 0.0015934627 -0.0014015009 0.0027155401 0.00024492032 -0.0020484223 -0.0049510556 0.0072665284 -0.00055061147 0.0037230931 -0.001652716 -0.0072009363 0.0016015284 0.00060085562 -0.0020398332 0.0039205961 0.0028725488 -0.0029540688 0.004120423 -0.0043451325 -0.0061699385 0.0047802613 -0.0011505311 0.0030233192 -0.0079585165 0.0054455851 -0.0017001344 -0.010904601 -0.0022032391 0.0031863269 0.0001447676 -0.0038040872 -0.0036467239 -0.0014581532 -1.6044758e-05 0.00062312046 -0.007754866 0.0050464193 0.00066509715 -0.0032767868 0.004712638 0.003094194 -0.00097186159 -0.0059811142 -0.00069482962 -0.0011996059 -0.00082521595 0.0078598792 0.0089662364 0.0016549154 0.006042813 0.0061480822 0.0016231997 -0.0064367196 0.0014940402 0.00022998375 0.001806641 0.0071591884 -0.002940933 -0.0031256354 -0.0029981215 0.007840313 0.0018505171 0.0004375744 0.00065529475 0.0020928902 -0.0022061993 0.0022742359 0.00064310024 -0.0066160569 0.0048711463 0.0085190525 -0.0020432191 0.00011396262 -0.00074699341 -0.002007338 -0.0045386297 -0.016742872 0.0053006527 -0.0037241047 -0.0025834448 0.0029680869 -0.0030368499 0.0007465966 0.0011440222 0.0018893385 -0.0020543239 -0.0015485582 -0.0046749022 0.0079071168 0.0065998929 0.010371444 0.00085795927 -0.0052675083 -0.0070511843 0.0013519105 -0.0034963801 0.00085703243 0.0018679204 0.0022258162 0.0017224933 -0.0019058002 0.0041020578 -0.0024399217 -0.00015504622 0.001939945 -0.0042775306 0.0069227908 -0.0044817245 0.0040835924 -0.0016493143 0.0071212384 -0.0038872308 0.0064879972 -0.0027179946 0.0016707748 -0.0014957392 -0.0099057648 0.00087033171 -0.00081647898 0.0087029999 0.0021317578 -0.00016266061 -0.0045905048 -0.0049393862 0.0061515807 -0.0025250441 0.0058281585 0.0036493978 -0.0017863059 0.0075617153 0.00016196356 -0.0012597286 -0.0030760933 -0.006980706 -0.0015634299 -0.0039922055 -0.0056380774 0.008978379 0.00021135013 0.0045683556 -0.0037410597 0.0064708618 -0.0028071688 -0.0055896961 -0.0063353418 -0.0056607821 0.0016389245 0.00063058169 0.0060072821 -0.0018126738 -0.0011595852 -0.0032945338 -0.0070170895 -0.0044764616 0.0059332503 -0.004210053 0.0021260499 -0.0012763873 -0.0036528239 -0.002057038 5.7071768e-05 0.0050988784 0.0017994627 0.0034023202 -0.0048974352 -0.00019089421 -0.00067775144 -0.003751229 -0.0050978195 -0.005252176 -0.0025937282 -0.0024044963 -0.0059539219 -0.0046311612 -0.001222476 0.0066928384 -0.0058471239 -0.0019555369 0.0053371033 -0.0040120995 0.003577807 0.0077954805 0.0027755343 0.0071095647 -0.001194244 -0.0085552763 -0.00097631611 0.00026774488 -0.0017351886 0.0022665816 -0.0089282049 -0.0061659855 0.0074137435 0.0014457398 0.0015029318 -0.00035438366 -0.006671377 0.0041480637 -0.010077046 -0.0017184268 0.0046591968 -0.00077409972 -0.0025500506 -0.0039114389 0.0012673552 -0.00093367341 0.0022207298 -0.0070855278 2.037593e-05 0.0011894839 0.0011872738 -0.00015065243 0.0032056859 0.0091946591 -0.0086412309 -0.0064197797 0.0013143622 -0.0066688801 -0.0031536564 0.0002606592 -0.0025617904 -0.0087285088 0.0010726508 -0.0019947959 0.0032994 0.012371816 -0.0012511901 -0.0034283607 0.0020459248 0.00543507 0.0016429465 0.0011314299 0.0018245424 -0.00053339574 0.0033640747 -0.002524165 -0.0061500152 -0.0060363687 0.0011563919 -0.0013535693 0.00030626237 -0.0013350965 -0.0010805975 -0.0015068044 0.0015051496 0.0019872498 -0.0046523716 -0.0085459286 -0.00099504669 0.010144609 -0.0051234011 -2.2084381e-05 -0.0046602902 0.0027826983 -0.00012509903 0.0013830605 -0.0024205756 -0.0060814382 -0.0017046231 -0.0026812651 0.0053868815 0.0023627076 -0.00055232237 0.00055732596 0.0012007646 0.00038692451 -0.00083791855 0.0037573648 -0.0055018552 -0.0021793153 -0.0043390696 0.017758016 -0.0003708078 0.0061007566 0.0031637901 0.0043690689 0.011372768 0.010423853 -0.0031410535 0.0061039813 0.00069799199 -0.0049147741 0.0059153601 0.0080119986 0.003070463 -0.0050449013 -0.014897182 -0.00067212357 0.0025510695 -0.0073079905 -0.0015233618 0.0026791662 -0.0078945626 0.0026140625 -0.0011890979 0.003760176 0.0034903351 0.0054774256 -0.0017422142 0.0018545722 -0.0018356048 -0.00050961546 -0.00060062425 -0.005595854 -0.0026817021 0.0027075757 -0.00078646652 0.0022096862 -0.0076611214 0.0018626143 -0.0038904955 -0.010735471 0.00076462846 -0.0074572475 0.00078550226 -0.00140355 0.002903631 -0.0072879652 0.0064439573 -0.0021036952 0.0064750086 -0.0046862345 0.0043468126 -0.0046887365 -0.0044887038 0.0012967371 -0.002451445 -0.0020128377 -0.0056312685 -0.0039182021 0.0016270726 0.0049864175 0.0050979317 0.0044680033 -0.0040364028 -0.0019778507 0.0038522047 0.0030879052 0.0032697029 -0.0071019386
天兔 -0.0028889859 -0.00046394335 0.00091518898 -0.005462849 -0.0024729711 -0.0006127595 0.0059799603 -0.0035308297 -0.007682655 0.0019790756 0.0030420802 0.0098782741 0.001892 0.0061467132 -0.00046215518 -0.0025582805 -0.0005113185 -0.0018625873 0.0044203354 0.0023271067 -0.00088538817 -0.0054134419 0.0020309747 -0.0056579104 -0.0041601621 0.0035483541 0.001734028 0.0014520643 0.005298811 -0.0014237842 0.0025117607 0.00088073913 -0.00066682347 0.0071352795 0.0068811448 0.0015899782 0.0035362982 0.0034466872 0.0092895981 0.00030736352 -0.0033341236 -0.00057285069 0.0015292997 -0.0015001879 -0.0041673407 0.010649783 0.010756493 0.0032036353 -0.0012432309 0.0023717417 -0.0032565966 0.0057212659 -0.0070580863 0.0022028286 -0.0023813779 -0.0018527758 0.0089080194 0.0058404286 -0.0026218253 0.0013918091 0.0019400751 -0.0012583506 0.0026830724 0.0020053834 -0.0029827014 -0.0047173547 0.0096657034 -0.00024843257 0.0033570225 -0.0005101366 -0.0086121392 0.0023097142 0.0013139127 -0.0019671379 0.0040916186 0.0029806064 -0.0030443144 0.0056820256 -0.0054349676 -0.0054469267 0.0071964106 -0.0030727652 0.0053413142 -0.010027222 0.0073894132 -0.0020930909 -0.012614011 -0.0020495274 0.0040132124 -0.0020003226 -0.0061241994 -0.0024419061 -0.0019063655 0.0018598457 0.0015582135 -0.0091845589 0.0052336743 -0.0007473983 -0.0027700358 0.0076282648 0.0055911923 -0.0022182895 -0.0072456058 -0.00146122 -0.0026044641 5.7943864e-05 0.010376317 0.010149185 0.0020108954 0.0070992783 0.0080833863 0.0034228989 -0.0073992698 0.00035089304 5.0547033e-06 0.002583384 0.010527933 -0.0057408661 -0.0022480171 -0.00330534 0.0098113827 0.00035097735 -0.00035728049 0.00080774189 0.0019577912 -0.0011507603 0.0038823849 0.0017632431 -0.0074949237 0.0052339998 0.010349016 -4.6111036e-05 0.0005283808 -0.0018025555 -0.002243557 -0.0054741912 -0.021017946 0.0079045855 -0.005175855 -0.0036756513 0.0027366884 -0.0045319851 0.0010463955 0.0021437069 0.0033984939 -0.0017653264 -0.0021617713 -0.0058674091 0.010558241 0.0081435228 0.011682871 0.00092253747 -0.0060090637 -0.010071738 0.0017374812 -0.002931356 0.00045738622 9.4784344e-05 0.00085821073 0.00089285185 -0.0025613813 0.0047852541 -0.0031480009 -0.00050398585 0.0022645949 -0.006620809 0.0080114463 -0.004280448 0.0051462012 -0.0017126009 0.0070731984 -0.0029027655 0.0068289186 -0.0051533245 0.0023738402 -0.003902195 -0.012588542 0.0011047596 -0.001398862 0.010062143 0.0021738077 0.00088255893 -0.0079200938 -0.0065625524 0.007260331 -0.0020496356 0.0084896013 0.0051647518 -0.0026157834 0.011449974 0.00069727784 -0.0012942369 -0.0035697962 -0.007729243 -0.002510563 -0.0048100101 -0.0048640296 0.010503273 0.00093065825 0.0053036939 -0.00580621 0.0097873285 -0.0046497574 -0.0051833168 -0.0093031935 -0.0089473119 0.0018569491 0.0028013929 0.0064660497 -0.004326269 -0.0013708177 -0.0034845176 -0.0095593398 -0.0046041938 0.0062076957 -0.0060448158 0.0028613305 -0.0017997011 -0.0063950256 -0.0022889541 0.0015154374 0.0064909412 0.0014030415 0.0049957791 -0.0061122365 0.00036482239 -0.00058123854 -0.0041029337 -0.0075889211 -0.0068903207 -0.0048659137 -0.002379647 -0.007087118 -0.004801651 0.00027368712 0.0067763515 -0.0065364134 -0.0014849094 0.0062541268 -0.0025438373 0.0033135407 0.0077394964 0.0020972006 0.0087877661 -0.00098802429 -0.0084287887 -0.0014658406 -0.00022964152 -0.0036897995 0.0042198808 -0.010687262 -0.0050309869 0.0097587658 0.0020434186 -0.00017743975 -4.5761779e-05 -0.0094572818 0.004495108 -0.010701435 -0.0027893714 0.0055500437 0.00048799976 -0.0014172565 -0.0034891383 0.0022535136 -0.0026780243 0.00088186807 -0.0085035712 -0.00024809886 0.0015970806 0.0014388056 -0.00088000047 0.0038211371 0.010886894 -0.011645504 -0.0071697454 0.0023356958 -0.010162833 -0.004865095 -4.9639533e-05 -0.0027053447 -0.010516334 0.0011932511 -0.0033499373 0.0025852639 0.01310444 -0.0025704519 -0.0018390378 0.0036973876 0.0053703776 0.003551336 0.00095569668 0.0010967373 0.0012684902 0.0058859526 -0.0024783479 -0.0075646262 -0.0066097905 0.00080169801 -0.0038650541 -0.00032088012 -0.0035089827 -0.0019141043 -0.00072468532 0.0022227131 0.003669074 -0.0059071332 -0.0092106629 0.00072661857 0.010663722 -0.0056722132 0.00099023816 -0.0070246318 0.0039151665 0.0013805177 0.00098736759 -0.0036391357 -0.0077475193 -0.0022000922 -0.0035388384 0.00434356 0.0011167353 0.00042747945 0.0014124338 0.001649106 -0.00013977758 -0.00010158426 0.0053255791 -0.0073756645 -0.0017880923 -0.0041660983 0.022113288 -0.00043096047 0.0065561663 0.0037140346 0.0064374525 0.014796711 0.013836092 -0.0035763474 0.0073571792 0.0020555994 -0.0075449408 0.0074149407 0.0075829686 0.0056961891 -0.0075454875 -0.018385213 -0.00017370786 0.0013452657 -0.0083298739 -0.00087500602 0.0040228036 -0.010470992 0.00234604 0.00083911914 0.0034162451 0.0031463385 0.0086911684 -0.0011311551 0.0025943236 -0.0023531213 -0.0011807805 -0.0014476916 -0.0057876864 -0.0020251586 0.0019984348 -0.0024018746 0.0026443079 -0.0093845408 0.00070897373 -0.0045186528 -0.014107472 0.0035205595 -0.010199911 0.0021364309 -0.0031742072 0.0044292747 -0.010150891 0.0087714987 -0.0029030733 0.0062849005 -0.0065521402 0.0036059078 -0.0064216368 -0.0062343166 0.0020417706 -0.0026846521 -0.0017075985 -0.0072428104 -0.0046863789 0.0022774537 0.0074829957 0.005416696 0.0051664808 -0.003278164 -0.0032592318 0.0050646034 0.0035345969 0.0036625394 -0.010034013
数学 -0.001379796 -0.00018173398 7.5170392e-05 -0.0041522575 -0.0017388086 9.3113733e-05 0.0036905829 -0.00102442 -0.0040264591 0.00071671105 0.0021400359 0.0058242804 4.0934683e-05 0.0025606893 0.00088278082 -0.001303432 0.0007456895 -0.0004914687 0.0032090864 0.0021797626 -0.00032835163 -0.0027432991 0.0016969866 -0.0028105397 -0.0017357199 0.0015109219 0.00042525656 -0.00016988511 0.0023089715 -0.00020903516 0.00048125951 9.1688336e-05 0.00024441566 0.0022858232 0.0043974658 0.00097398006 0.0011736131 0.0010438113 0.0043590283 0.00028564475 -0.0019452565 -0.0010404352 0.0016170236 -0.0011428992 -0.0029458592 0.0041198293 0.0059845499 0.00069105159 0.00075842196 0.0010915069 -0.0012108913 0.002828832 -0.0045131939 0.00027085032 -0.00071758439 -0.0014445412 0.0045871129 0.0019242524 -0.0014633469 0.0011301363 0.0016511014 2.4639085e-05 0.0013925891 4.0534695e-05 -0.0014678697 -0.0029766387 0.0040398282 0.00043388325 0.0012935034 0.00037335276 -0.0046126703 0.00092837895 0.00021951231 -0.001302348 0.0028944681 0.0034003251 -0.0022971572 0.0016263697 -0.0015303653 -0.002450923 0.0044884374 -0.00028270975 0.0030100248 -0.0062535112 0.0043998417 -0.0012905976 -0.0079941368 0.00019184469 0.0011710055 -0.0017035336 -0.0037599159 -0.00048551429 0.00038513544 0.00084517861 0.00034736469 -0.004150236 0.0022659893 0.00051908114 -0.0010119192 0.0045903423 0.0037539026 -0.0014091469 -0.0025800799 -0.00041643262 -0.0018741833 0.00011933163 0.0042143459 0.0070649297 2.1966525e-06 0.0045488267 0.0048791259 0.00037731387 -0.0032332202 -0.00028125563 -0.0010997987 0.0014442186 0.0057286685 -0.0037909935 -0.0016885422 -0.0004124516 0.0060297893 0.00015493835 0.00066781702 -0.00028218428 0.0010721213 -0.0014208729 0.0017787836 0.0013856632 -0.0042602858 0.0027967698 0.0055987947 -0.0013690724 -0.0011746341 -1.2257055e-05 -0.0024076616 -0.0027434553 -0.011181851 0.0050872173 -0.0018604285 -0.00079323741 0.0021224204 -0.0023245795 0.00095188146 0.0013687294 0.00017309669 -0.00052415743 -0.001884557 -0.0034928143 0.0060237935 0.0044608386 0.006487817 0.00071111601 -0.0026730886 -0.0039289654 0.0021932116 -0.0027076355 -0.00032853207 0.0014822666 0.00094336824 0.00040047694 -0.00069117179 0.0018108028 -0.0015683953 -0.0018933148 0.0017306675 -0.0032529819 0.0048207478 -0.0027924669 0.0035669461 -1.0556614e-06 0.0052738409 -0.0020657792 0.0027020732 -0.0036478527 0.0015747955 -0.00056961674 -0.0055836234 0.00089367147 -0.0010611324 0.0064977952 -0.00027368183 0.00040834589 -0.0039498755 -0.0024232189 0.0038284275 -0.0019685491 0.0050913622 0.0025575056 -0.0025732948 0.0066832681 -0.00026570869 -0.0012921446 -0.00067030976 -0.0053542363 -0.00076684169 -0.0033150963 -0.0023724767 0.004445645 0.0010825718 0.0027062367 -0.0037019842 0.0045276931 -0.0034516593 -0.0042272764 -0.0050867884 -0.0051312568 0.0011530606 0.00028522062 0.0029300528 -0.0021802643 -0.0018503459 -0.0017268915 -0.0038395228 -0.0022091642 0.0022337772 -0.0031935431 0.0022836868 -0.0021280423 -0.0039306059 -0.0019801769 0.00031439887 0.0032234152 0.0017701045 0.002507535 -0.0027512321 -0.00022940751 5.4545992e-05 -0.0024343892 -0.0045997887 -0.0025374771 -0.0031004706 -0.0018754523 -0.004172001 -0.0034089354 0.0011317286 0.0043390752 -0.0035256848 -0.0010620875 0.0023636536 -0.001510639 0.00180516 0.0040867687 0.0024446787 0.0056825886 0.00010402659 -0.0036296397 0.00030127133 7.5885917e-05 -0.0015732953 0.0028784047 -0.005363489 -0.0031237244 0.0064457166 0.0023679929 0.00039027983 -0.00055492949 -0.0035459935 0.0040119151 -0.0054597468 -0.0019050995 0.0028644353 0.00095215108 -0.0012664072 -0.002276598 0.0015358354 -0.00128432 0.00042949666 -0.0040835487 -8.9752226e-05 0.0010813469 -0.00036278166 0.00020082504 0.00091302313 0.0069226841 -0.0062059187 -0.0034878959 0.001977433 -0.0047617448 -0.00088085933 0.00039425667 -0.0013485529 -0.0044616773 0.00086596067 -0.0024430428 0.0016016249 0.0081099551 -0.00068112381 -0.00046891905 0.00085801521 0.0038696812 0.0027583886 0.0019618124 0.0011107194 0.00087229122 0.0039718319 -0.0024753807 -0.0036667483 -0.0034893753 0.0015867334 -0.0024850455 0.00095905032 -0.0018180904 -0.0010713636 0.00045711297 0.0015277741 0.0018505135 -0.0036726354 -0.0054292064 0.0011440411 0.0064521823 -0.0029317858 0.0020875698 -0.0028170063 0.0030088881 -0.00019809291 0.00092695619 -0.001031654 -0.0035906401 -0.001383985 -0.0027680404 0.0040513873 0.0020984919 0.00035745979 0.00052940659 -0.00027963266 0.00014393996 -0.00058072002 0.0019687472 -0.0052392213 -0.0014859992 -0.0034154693 0.012443591 -0.00012447688 0.0036727709 0.0025349585 0.0026980247 0.0062875175 0.0072778272 -0.0036508397 0.0044808495 0.0014484528 -0.0042240331 0.0050048893 0.0036616488 0.0031189674 -0.0042157108 -0.010322351 -0.0014999902 0.00081251684 -0.0031532263 -0.0015556227 0.0031902904 -0.0061602849 0.00020703016 0.00027023142 0.0021942351 0.0029421912 0.005072718 -0.0010455084 0.0026024962 -0.0022032408 -0.0004769009 -0.00096490094 -0.0020323589 -0.0013355843 0.0018852954 -0.0006708334 0.0019669179 -0.0058502257 0.0019008744 -0.0028898616 -0.0073328642 0.0017783841 -0.0047352123 0.0013036617 -0.002555555 0.0030396236 -0.0059082871 0.0045016888 -0.0022842139 0.0037916293 -0.0042392155 0.0032694293 -0.0024708302 -0.0028593449 0.00043023331 -0.0013253816 -0.00047698399 -0.0049362485 -0.0036905094 0.0008620072 0.0040296684 0.0027905435 0.0035960102 -0.0011374094 -0.0022905024 0.001224432 0.00038237718 0.0016834429 -0.0053158272
为 -0.0025911995 0.00015923937 -3.3781678e-05 -0.0037968503 -0.0027314743 0.001216004 0.0053672562 -0.0026895187 -0.0056036371 0.0012586375 0.0023033577 0.0059860307 0.0016335476 0.003871948 -4.1413496e-05 -0.00067268405 0.00038837339 -0.00080416602 0.0044178027 0.0018522767 0.00072336977 -0.0035866455 0.0010984322 -0.0029866099 -0.0027049021 0.001380399 0.0017360018 0.0016705825 0.0025815042 -0.00092510274 0.0021622896 0.0009243617 -0.00035813489 0.0051554753 0.0049638371 0.0013360456 0.0020299735 0.0009383643 0.0070444918 0.00059613225 -0.0015065039 0.00043060488 0.00097790442 -0.0010547756 -0.0027890655 0.0061442615 0.0084397597 0.0024320993 -0.00060940569 0.0027132076 -0.0017463996 0.0043721423 -0.0042870683 -0.0004481037 -0.0017047256 -0.00012899695 0.0057203677 0.0024088505 -0.0022380778 0.00050532835 0.00022606163 0.00064848975 0.0016688607 0.00046429777 -0.0024561631 -0.0042462242 0.0062761717 -0.00047382424 0.0024687492 -0.00062186341 -0.0072087622 0.0022495624 3.8113965e-05 -0.0015572647 0.003098832 0.002516856 -0.0018923902 0.0032214895 -0.0031195786 -0.0045395046 0.0042390432 -0.0021632158 0.0038136959 -0.0069257678 0.0053384127 -0.0015765469 -0.010448327 -0.0015742198 0.0033965481 -0.00018945202 -0.0050498592 -0.0024333703 -4.9541668e-05 0.0013745419 -0.0004262696 -0.0068649859 0.0046883463 0.0010914751 -0.0022781077 0.0034623058 0.0033234786 -0.00097321614 -0.004698684 -0.0013486785 -0.0021733288 -0.0015034372 0.0068975985 0.0077903182 0.00075303874 0.0032857417 0.0046701906 0.0028016432 -0.0054654391 0.00059192302 -0.00094157713 0.00074724486 0.0069487141 -0.0038399743 -0.0026560896 -0.0023449957 0.0062658736 -2.9098652e-05 -0.00028396229 0.0010921827 -0.00016234527 -0.0021364798 0.0025133232 0.00088819099 -0.0057502799 0.0050749639 0.0085598212 0.00010273569 -0.00020291004 -9.5484967e-05 -0.0010676562 -0.0039545633 -0.014752894 0.0049027321 -0.004486307 -0.0019091088 0.0030023491 -0.0018952056 -0.00019517707 0.0020254145 0.0010014847 -0.0013047125 -0.0013451404 -0.003399017 0.0076847663 0.0049642655 0.0090917479 -0.0006758708 -0.00507238 -0.0058557498 0.0017310755 -0.0025051341 0.00068685209 -0.00058708928 -0.0002756115 0.0015653805 -0.00058308523 0.0036953765 -0.0037116793 -0.00210984 0.0031753818 -0.0047161956 0.0043174005 -0.002247514 0.0031385347 -0.00024132755 0.0048956145 -0.0033680908 0.0045935074 -0.0023188733 0.0017732579 -0.0012233022 -0.0088070771 -0.00080363482 -0.00052362663 0.0073830504 0.00038281735 0.00078243774 -0.0054956409 -0.0040783421 0.0048800176 -0.0012791893 0.0053267474 0.0042071384 -0.0026528796 0.0072644236 -0.00019479248 -0.00068561174 -0.0020605484 -0.0067879474 -0.0019436626 -0.0025700445 -0.0042910096 0.0075271088 -0.00056599139 0.0048351907 -0.0028868772 0.0071642022 -0.0025017709 -0.0035330043 -0.0048390804 -0.0062189694 0.00073480431 0.0012538056 0.0052199103 -0.0020042553 -0.0017628421 -0.0033530737 -0.0067822216 -0.0043403292 0.0042351261 -0.0039209467 0.0037550342 -0.0011835799 -0.0050265198 -0.0026546069 -6.3324245e-05 0.0045743594 0.00015932917 0.0044063427 -0.0039287359 -5.3716329e-05 0.0010272483 -0.0031841025 -0.0047794324 -0.0046741529 -0.0036066291 -0.0016054676 -0.0063120332 -0.0033701283 0.0010717667 0.0042825206 -0.0040163146 -0.00028014116 0.0058887084 -0.0029282193 0.0017115788 0.0072345934 0.001198738 0.0078750318 -0.00110599 -0.0057975152 -0.00087744318 0.00058283529 -0.0037313476 0.0019681172 -0.0076051499 -0.0043016849 0.0076207113 0.0019628766 0.001386876 0.001135112 -0.006294908 0.0030897243 -0.0091385487 -0.00055015384 0.0045600557 0.0010497718 -0.00069490063 -0.0028197905 0.0014462776 -0.0024410333 0.001770907 -0.0047505102 -0.0014036126 0.00052896159 -9.6305019e-05 -0.0003823108 0.0019772418 0.0069977203 -0.0079610329 -0.0058668191 0.0014307549 -0.0070031867 -0.0038087908 -0.0013928666 -0.0029289676 -0.0062503964 0.00054506364 -0.00041387376 0.0035277889 0.0099723311 -0.001119379 -0.0026993584 0.003061376 0.0053123347 0.00077312189 0.0012257575 0.0015606724 0.0011504064 0.004151145 -0.0017298997 -0.0059307944 -0.0054815561 0.00025624156 -0.0019103893 -0.00015917128 -0.0018636186 -0.0020590178 -0.00059833308 0.0017697376 0.0023852021 -0.0045343554 -0.0069546951 -0.00024932376 0.0083656935 -0.0031939149 -6.1712664e-05 -0.0055115572 0.0037140909 0.0016551339 0.00016176907 -0.0024007419 -0.005911835 -0.0013280031 -0.0016635786 0.002906641 0.0022364322 -0.00071888743 0.00061198621 0.0002898885 0.00091460149 -0.00010656739 0.0047601173 -0.0046415767 -0.0024368162 -0.0036497028 0.014790681 -0.0021242604 0.0055935378 0.0029812988 0.0038281474 0.010664075 0.0083625522 -0.0021964088 0.0058398158 -0.00032301337 -0.0057648201 0.0059455526 0.005778328 0.002973055 -0.0051855585 -0.0120284 -0.00065635034 0.00076218409 -0.0046805409 -0.00043736867 0.0018228311 -0.0084873345 0.001278083 -0.0013035953 0.0032896579 0.0031553386 0.0065062749 -0.0015939405 0.0035191518 -0.0017181705 -0.0014167263 7.9038982e-05 -0.005450733 -0.0013597753 0.0035008886 -0.0018104946 0.00096265582 -0.0077152564 0.00042394424 -0.0046942448 -0.0087983627 0.00065058377 -0.0070893033 -0.00043187608 -0.0030668953 0.0019673915 -0.0064881979 0.0062134746 -0.0025268237 0.0053747911 -0.0051181531 0.0032202429 -0.0037109551 -0.0040813079 0.00043530567 -0.0012413948 -0.00093307131 -0.0061924998 -0.0049338201 0.0012702968 0.0052598421 0.0050593922 0.0046825046 -0.0037182502 -0.0033632745 0.004112123 0.00062772626 0.0011034129 -0.0069844848
等 -0.0010660187 -0.00048551671 0.00082323642 -0.0053876303 -0.0015005122 0.00095283194 0.005984351 -0.0019331486 -0.0075657275 0.0010957924 0.0013766941 0.0074147689 0.00027232646 0.0043123271 0.00111758 -0.0013938112 0.00030585221 -0.00064577803 0.0046041305 0.0016240706 0.00070630322 -0.0052587045 0.0030157261 -0.0034466907 -0.0037417358 0.0013894091 0.00087781303 0.00076010847 0.0038969775 0.00053126778 0.0021605573 5.7707566e-05 -0.0010036707 0.0061349855 0.0049445368 0.0013868165 0.0022959888 0.0034795711 0.0076843454 -0.00058894133 -0.0023937793 -0.00081866473 0.0017402779 -0.0011278928 -0.0020620818 0.0074234316 0.0072880313 0.001192939 -0.00058510754 0.0018633709 -0.0012794993 0.0030564081 -0.0044715507 0.0016611749 -0.0016626084 -0.00033563783 0.0053356783 0.0046120202 -0.0033200963 0.00081668806 0.00079730421 -0.00081295113 0.0019430347 0.00077382254 -0.0033433805 -0.0034558275 0.0084890351 -0.0015847668 0.0032475274 -0.00044981734 -0.0059760553 0.0022388631 1.3901055e-05 -0.0014050377 0.0035425751 0.0023131862 -0.0021141923 0.0030364755 -0.0042964024 -0.0058773537 0.0052172262 -0.0027045882 0.003892353 -0.008146313 0.0049793231 -0.0012996668 -0.010839787 -0.0020303838 0.0043386663 -0.00076892209 -0.0049851499 -0.0019937572 -0.0016108665 0.0014252482 0.0019785129 -0.00780932 0.0028698044 -0.00054211234 -0.0018916319 0.0061752382 0.0028537465 -0.00025824495 -0.0051887939 -0.0017435333 -0.00066715386 -0.00028726866 0.0066779852 0.0097396821 0.0014371474 0.0054795048 0.0051469114 0.0031624006 -0.0054312297 0.00078154047 0.00064845162 0.0020088262 0.007498615 -0.0034556037 -0.001941813 -0.0027559975 0.0063055395 0.0015162058 0.00065827766 0.00055490993 0.0016158875 -0.0010337062 0.0037734439 0.0020253651 -0.0064195041 0.0049910434 0.0093452418 0.0002877998 0.00041388324 -0.002397978 -0.00031265055 -0.0039925082 -0.016928827 0.0054040132 -0.0051618856 -0.0029315848 0.0017453356 -0.0016232961 0.0017012266 0.00023107932 0.0020984854 -0.0031606769 -0.0023713987 -0.005794331 0.0068471609 0.0057046353 0.0098108994 0.0014065783 -0.0039265407 -0.0080265682 0.0018347449 -0.0030464847 0.00016789441 0.0012368365 -3.9564555e-05 0.00041917781 -0.00094327191 0.0034943912 -0.0025338037 -0.0019932366 0.0014159849 -0.0060058679 0.0056398842 -0.0026604913 0.0027178123 -0.00045820771 0.0060057468 -0.00368347 0.0045239986 -0.0041393857 0.0028856876 -0.0032488385 -0.0096990345 -6.1667437e-05 -0.0011152508 0.0088225855 -6.5742905e-05 0.0012803904 -0.0062381946 -0.0063226111 0.0049437778 -0.0028219868 0.0071459245 0.0049379612 -0.0028761309 0.0081884926 0.0018393795 -0.0012135772 -0.0015956806 -0.0057244543 -0.0022546875 -0.0037641637 -0.0033073083 0.0085396394 -0.00069904316 0.003834422 -0.0043885885 0.0068322178 -0.0049351663 -0.0057291193 -0.0067834477 -0.0053702365 0.00018114169 0.00082292763 0.0042385454 -0.0031090647 -0.00053168542 -0.0013708808 -0.0066636819 -0.0034200065 0.0052880021 -0.0028267808 0.0021320223 -0.00039626402 -0.0044205184 -0.0012163065 0.0002403379 0.0047460101 0.0010541456 0.0047748187 -0.0040441887 -0.00015983405 -0.00048012592 -0.0037056762 -0.0066457717 -0.0032206248 -0.002765757 -0.0013539366 -0.0065698209 -0.0029318177 4.7111138e-05 0.0051803659 -0.0050953198 -0.00077629508 0.005261919 -0.0032510834 0.0018401109 0.0076038027 0.001673557 0.0085970359 -0.0018213557 -0.0070832665 -0.0012703018 -0.00019595755 -0.0018284917 0.0017924013 -0.0072385184 -0.0041399295 0.007474036 0.0013084349 -0.00011673111 0.0018529423 -0.0067732004 0.00540428 -0.0077989097 -0.0012844936 0.0062051523 6.5367356e-05 -0.0022375849 -0.0031046534 0.0020356306 -0.00096355809 0.0010918784 -0.0066386624 -0.00043890678 0.0014319356 0.0011296043 -0.00050089339 0.00099214516 0.0081859734 -0.0098492671 -0.0049477541 0.0022566621 -0.0064409012 -0.0028192932 0.00060680014 -0.0008763441 -0.0070137102 0.0010748368 -0.0028322714 0.0016121021 0.0098542897 -0.00047215991 -0.0031188454 0.001250399 0.0040437109 0.0028510541 0.0015189993 0.0013087619 -0.00046770935 0.0038760134 -0.0010818515 -0.0074710157 -0.0044512474 0.0011473758 -0.0022092003 -0.001036211 -0.0016205586 -0.002100453 -0.002322254 0.001502567 0.0035865086 -0.00242375 -0.0083286325 0.00029498598 0.0094193397 -0.0033357095 0.00089164206 -0.0046448899 0.0022596675 0.0019336011 0.0022680073 -0.0029060377 -0.0048443684 -0.00019500895 -0.0041151661 0.0051167682 0.0022306093 4.1558713e-05 -0.00040073405 0.00032808093 0.0009682973 0.00066483603 0.0046003559 -0.0048840307 -0.0016813993 -0.0039554369 0.015510696 -0.00058720232 0.0048851678 0.0018426187 0.0042586913 0.012059996 0.010883359 -0.0029271799 0.0044882922 -0.00021395496 -0.0059054503 0.0059880079 0.006646269 0.0034430465 -0.0055504683 -0.013837405 -0.00050021103 0.00075059588 -0.0064658104 -0.0018475939 0.003243322 -0.008794901 0.0019432406 0.00098855456 0.0033174511 0.0035646879 0.0068713478 -0.0011075264 0.0034754013 -0.0021291883 -0.00087769452 -0.00079479901 -0.0037809 -0.0018620475 0.0016891578 -0.00079311698 0.0019363398 -0.0077828271 0.0021458608 -0.0055865427 -0.0092617404 0.0011874237 -0.0081020566 0.0020406197 -0.0015268238 0.0045956727 -0.0083963927 0.0059198271 -0.0034612683 0.0058173714 -0.0044791098 0.0043740836 -0.0040868064 -0.0036290272 0.0018107959 -0.0010325711 -0.00085707963 -0.0070981621 -0.0032715166 0.0023832845 0.0049404907 0.003589933 0.0049195867 -0.0027207483 -0.0024969599 0.0034239888 0.0023150248 0.0024168338 -0.0086317901
也 -0.0012860687 -0.00097345171 0.0010488163 -0.0041225576 -0.0021853421 0.00125886 0.0043465691 -0.0013014399 -0.0050172387 -0.00070681213 0.0021127828 0.0068403101 0.00028968719 0.0051946575 0.0010523495 -0.00057310675 0.0012986887 0.0002298466 0.0045547565 0.0020970474 0.0013990143 -0.0039779227 0.0029428573 -0.0048011933 -0.0027194773 0.0030804737 0.002265271 0.00014340623 0.0039430475 0.00084214221 0.0021812557 -0.0010986332 0.00085793826 0.0040177815 0.0044914833 0.0023466668 0.0026695768 0.0015514544 0.0065599857 -0.0010080009 -0.0029394375 0.00052541145 0.0017236546 -0.0015701511 -0.0039692945 0.0058892192 0.0082067512 0.0028187833 0.0011260068 0.00099087739 -0.001368441 0.0042788372 -0.0051524765 0.00082423235 -0.0036151453 -0.0016657788 0.0062468201 0.0025673839 -0.0018986568 -0.000480552 0.00068734528 -0.00036589729 0.0014830341 0.00081687857 -0.0027597805 -0.0025280216 0.005985091 -0.0014279592 0.0033198518 -0.00049729436 -0.0065613757 0.00078098261 -0.00082396582 -0.0017600439 0.0020124046 0.0027861053 -0.0031787683 0.0044680294 -0.0040010964 -0.0040181172 0.0053045494 -0.0026226428 0.0047226334 -0.0063479734 0.0050101862 -0.00089138624 -0.0087346509 -0.0019452095 0.0022563871 -0.0011008544 -0.0031939996 -0.0023422253 -0.0015090404 0.00087628025 0.00029544361 -0.0060081682 0.0046458873 0.00054560252 -0.0029726827 0.0048577604 0.0023739194 -0.0015271044 -0.0053555975 -0.00060667825 -0.00037119558 -0.00073527865 0.005974941 0.0074277311 0.0017321893 0.0050025233 0.0060944925 0.00168746 -0.0055182432 1.2604161e-05 0.000561136 0.00068604312 0.0058871442 -0.0023757773 -0.0015927117 -0.0024143099 0.0056932485 0.00086898461 -0.00036558945 -0.00028688047 0.00022300106 -0.0018059895 0.0036299799 0.00082227698 -0.0061578676 0.0032018102 0.0083282487 -3.758727e-05 -0.00093791302 -0.0002722409 -0.0026651835 -0.0053207688 -0.015519137 0.0064967773 -0.0045693098 -0.0025692612 0.0029419411 -0.0019053528 0.001197048 0.00035323476 0.0026201338 -0.0022872216 -0.0030677242 -0.0033868558 0.0074447743 0.0061839651 0.0077883336 4.3539538e-05 -0.0034573195 -0.0071859695 0.0024570737 -0.0034522421 0.0014452935 0.00055420818 0.0013098588 0.00062652444 -0.0010806632 0.0023863062 -0.0025411923 -0.0021667143 0.0022990515 -0.0046678446 0.0053666658 -0.0037541105 0.0037979425 -0.0010699078 0.0057282075 -0.0036249082 0.0059280475 -0.0023458111 0.0036061099 -0.0017344838 -0.0083323661 -0.00041382216 -5.2953666e-05 0.0082705962 0.00036798153 0.00062177127 -0.0054369336 -0.0053597568 0.005508488 -0.0020496116 0.0053682416 0.0050513414 -0.0020877679 0.006681032 0.0019961288 0.00062537641 -0.0028085201 -0.0044280975 -0.0011446733 -0.0038782575 -0.0035713785 0.0060989833 4.8348084e-05 0.0047077467 -0.0025444883 0.0051352293 -0.0043919212 -0.0034793892 -0.0063056643 -0.0057982234 0.001284249 0.00025918931 0.0036003352 -0.0012414241 -0.00065123581 -0.0026535522 -0.0073954072 -0.003593663 0.005288681 -0.0045680311 0.0019499486 -0.001725445 -0.0039073359 -0.00051857537 0.000519266 0.0062688412 0.00016061703 0.0038284799 -0.0038462968 0.0013246669 -7.1388487e-05 -0.0036571221 -0.0053460505 -0.003530374 -0.0035286522 -0.0015929663 -0.0069140354 -0.0032679599 0.00063791161 0.0058915988 -0.0059048068 -0.00065194292 0.0050259819 -0.0038156076 0.0025137432 0.0066329762 0.0014926232 0.005851585 -0.0017427991 -0.0074961646 -0.0024425762 -0.00024604556 -0.0018733982 0.0025369923 -0.0061613503 -0.0052616424 0.0076479092 0.00022603475 0.00046964808 7.5127464e-05 -0.0064914026 0.0050614644 -0.0088947071 -0.00061292935 0.005249728 0.00060403248 -0.0016509469 -0.0022370669 0.00075014168 -0.0017952849 0.0021436969 -0.0061018448 -0.0010526066 0.00034046161 -0.0002086154 0.00079238997 0.0020790983 0.0088134082 -0.008507791 -0.0040932172 0.0013723219 -0.0068267328 -0.0028606842 -0.00080183236 -0.00072052336 -0.0067843366 0.00095958705 -0.0020750246 0.0020255393 0.010906603 -0.00076682796 -0.0020485185 0.0016697028 0.0044541475 0.0010703674 0.0020496366 0.0012258561 -0.00091976929 0.004212569 -0.001814891 -0.0054812976 -0.0038488517 -0.00021789434 -0.001326395 -0.0015064558 -0.0016924076 -0.0025214562 -0.0015180841 0.0013204458 0.002636269 -0.0034733177 -0.0074241185 -0.00021801431 0.008397568 -0.0043691243 -0.00011205993 -0.0054149786 0.0014539165 -0.00022052342 0.0018165323 -0.0033881769 -0.0059700226 -0.0011284048 -0.0025583906 0.0036414703 0.00023502999 0.00084823486 -0.00024707106 -0.00064653991 -0.00050955941 -0.00033874417 0.003956262 -0.0066083879 -0.0024458894 -0.0025834753 0.016174441 -0.0021318074 0.005068535 0.0032711884 0.0041014259 0.0088742618 0.0092008021 -0.0026399214 0.0053003188 0.0013576683 -0.0034914149 0.0052150427 0.0074248579 0.0046731979 -0.0045706197 -0.011885151 -0.0014589467 0.0023139687 -0.0061300909 -0.0025244947 0.0039074323 -0.0090375654 0.0026088255 -0.00095582922 0.0031676101 0.0020777332 0.0047452389 0.00023897295 0.0015528915 -0.0023657791 0.00067905511 0.00043476137 -0.005342511 -0.0014912526 0.0012791792 -0.0015893345 0.00050538615 -0.0055390839 0.0011390871 -0.0049847257 -0.0088612214 0.0022953213 -0.0068018283 0.0010003833 -0.0009855238 0.0028327922 -0.007355222 0.0067008175 -0.0020172871 0.0043250611 -0.005141688 0.003174403 -0.0049573104 -0.00486277 0.001465858 -0.00017333863 -0.001848705 -0.0052945679 -0.0036715707 0.0010518851 0.0043491162 0.0051375115 0.005152938 -0.0016749543 -0.0022020792 0.0036367152 0.00080922287 0.0029770366 -0.0060962979
被 -0.0003263182 -0.0017393414 0.00051638077 -0.0035354341 -0.00079166575 -0.00082232937 0.0034757969 -0.0014019957 -0.0059637148 -0.00079723017 0.0010957321 0.0056215781 0.0012800571 0.0049477019 0.0010184214 -0.001620491 -9.3605253e-05 -0.00012295581 0.0019158308 0.00037621224 -0.00056314206 -0.0026140145 0.00060360593 -0.002664808 -0.0011662473 0.0017492627 0.00045597783 -0.00070749555 0.0026306522 -0.0012504671 0.00048576013 -0.00027016495 0.0010825993 0.0049916659 0.0047323802 0.0013251721 0.0010590355 0.0028204373 0.00448087 0.00024584954 -0.0013818147 -0.0012623026 0.0010157928 -0.0021486052 -0.0026891499 0.0052611153 0.005963543 0.00095636555 0.00087156089 0.00091619149 -0.0008598158 0.0038658364 -0.0032416263 0.0013261115 -0.003277722 -0.0020687997 0.0043623378 0.0028199351 -0.002079414 -0.00035510983 9.0691756e-05 -0.00090720231 0.0027198354 0.0018708645 -0.0026942322 -0.0017972154 0.0065512555 -0.00075533165 0.0034410297 -0.00048801518 -0.0064591519 0.00042363524 -0.00012908012 -0.0023449049 0.0028719625 0.0015561297 -0.0024353457 0.0034715754 -0.0032875927 -0.0043566944 0.0043883449 -0.0014651072 0.0032123546 -0.0060394122 0.0037282961 -0.001162749 -0.0090372898 -0.00070079602 0.0033311958 6.9415481e-05 -0.0028920406 -0.00094896666 -0.00016360266 0.00057766907 0.0018039012 -0.0065736086 0.0029442499 -0.00039129425 -0.0010594702 0.0033012086 0.0039985976 -0.0021801875 -0.0041421894 -0.00037250677 -0.00013943257 0.00033776308 0.0059979754 0.006262023 0.00086129305 0.0034900603 0.0048427833 0.0024155655 -0.005981945 0.00084206293 0.00027114264 0.0024509099 0.0065279594 -0.0024332674 -0.0030386976 -0.0028117057 0.0061087511 0.0018112314 0.00088741543 0.00017403788 0.00024418309 -0.00037074939 0.0018403636 0.00092590478 -0.0041120574 0.0044145575 0.0066781775 -6.699963e-05 -0.00060234364 -0.0014144294 -0.0023297362 -0.0036056126 -0.012073121 0.0046382616 -0.0029173647 -0.0029291175 0.0024694093 -0.0018243934 -4.6038575e-05 6.3598622e-05 0.0021036877 -0.0016107167 -0.00075768109 -0.0024987522 0.0055090752 0.0038649421 0.0060643088 -0.00061074528 -0.0025824001 -0.0045333127 0.0010345469 -0.0023429045 0.0012513169 0.00021570844 0.0017796408 0.00016916794 -0.00062483316 0.0018780995 -0.00177342 -0.00052835862 0.0024519339 -0.0053056334 0.0034143864 -0.0032906204 0.0028821977 -0.0016387256 0.0059744325 -0.0023468887 0.0030986262 -0.0036263948 0.0031758538 -0.0025489854 -0.0074224393 0.0001718087 0.00056540535 0.0062264763 0.00044042119 0.0017035441 -0.0040080068 -0.0049907197 0.0035223267 -0.0015842123 0.0055565177 0.0040854677 -0.002038904 0.0070551648 0.0016605535 0.00025321133 -0.0019745387 -0.0036661867 -0.0017079747 -0.0034472609 -0.0043963189 0.0062173656 7.3596209e-05 0.0034526221 -0.002910747 0.0041769883 -0.003403048 -0.002628284 -0.0055670221 -0.0051958226 0.0016311099 0.0020850692 0.0033627809 -0.0010095479 -0.00040936339 -0.00083785341 -0.0050548138 -0.0029957392 0.0046106009 -0.004214969 0.0014578691 -0.00084257702 -0.0032058347 -0.0010446057 0.0016715681 0.0055406094 0.0017612951 0.0020132158 -0.0034758504 0.00068470015 -0.0010200806 -0.0041541872 -0.0057182792 -0.0040505454 -0.0034873055 -0.0015581131 -0.0050269882 -0.0032554527 0.0011782249 0.004755049 -0.0051205563 -0.00072988978 0.0036591429 -0.0028067625 0.00068660593 0.0057712696 0.0023682702 0.0064168614 -0.00043289913 -0.0051531736 -0.002139264 0.00019035439 -0.0016538999 0.002640038 -0.0053752922 -0.0038105734 0.0052443892 0.0017342102 0.00051340437 0.00056326838 -0.0063267513 0.0021704934 -0.0061761881 -0.0018845934 0.0046215113 -7.2055664e-05 -0.00039422335 -0.0018970541 0.00035212052 6.0798513e-05 0.00032133484 -0.0038698509 0.0010765229 0.0011909152 0.0013191306 -8.7317829e-05 0.0025832823 0.0060396004 -0.0072357017 -0.0052428339 0.00077417021 -0.0061511649 -0.0018466698 0.00047923767 -0.0025554085 -0.0049311416 -0.00036131553 -0.0011890148 0.0015840871 0.0076210871 -0.0023553176 -0.0024012502 0.00071689376 0.0045180139 0.0014478404 0.002152327 0.0015821321 -0.0009468692 0.003360515 -0.0022218975 -0.0051336922 -0.003469741 0.0010441107 -0.002838965 -0.0011164251 -0.0018375769 -0.0015604423 -0.00062783191 0.0012264502 0.001563794 -0.002711473 -0.0059698792 -0.00090175384 0.0075144372 -0.003848026 0.0003572102 -0.0032549652 0.0031253386 0.00059797347 0.00061053969 -0.0026966403 -0.0038365975 -0.00076821377 -0.0016730174 0.0031063848 0.0017814235 0.00088243873 0.00040224992 0.00030371899 -0.0009596328 -0.00071679882 0.0027681035 -0.0049819709 -0.0014652071 -0.0030681989 0.013667954 0.00029898575 0.0042005791 0.0031897649 0.0044121882 0.0091207158 0.0074236565 -0.0039391671 0.0038522512 -0.00034878211 -0.0047059478 0.0042231297 0.0059122927 0.0028919836 -0.0051749242 -0.010266657 0.00023158168 0.0018809413 -0.0036608127 -0.0020140742 0.0031246301 -0.0065002264 0.00048754734 0.00025783546 0.00099493528 0.0030622568 0.0032474198 -0.00088070956 0.0017453278 -0.0002479931 -0.00027795904 0.00011556162 -0.0034502957 -0.0022848207 0.0033420199 -0.001402405 0.0010984045 -0.0048218062 0.0013245739 -0.0044430071 -0.0084770396 0.00028742442 -0.0042128288 0.001633679 -0.0025102252 0.0030240281 -0.0049986974 0.0060380194 -0.0012178629 0.0036915427 -0.0051294048 0.0031066872 -0.0025496108 -0.0019778383 0.0010392418 -0.0014853795 -0.0017841734 -0.0056543443 -0.0036382165 0.00046138666 0.00288946 0.0029827105 0.004131706 -0.0031548608 -0.0014715856 0.0012852621 0.0017622763 0.0013199296 -0.0061065387
我 -0.00037747042 -0.00088074832 -0.00050787057 -0.0030015844 -0.0026480812 0.0001607227 0.0048474022 -0.0016135968 -0.004900624 0.00057103147 0.0032509472 0.0056429827 0.00024326638 0.0049255765 -0.00047552286 -0.0005407749 -0.00079510699 0.00029595496 0.003740058 0.00074501388 0.00067782024 -0.0041087675 0.0019453851 -0.0040274519 -0.0020083329 0.0027750055 0.00076281192 0.00015099207 0.0023955551 -0.00082055881 0.0022065518 4.1738589e-05 0.00037354758 0.0034763534 0.0039430005 0.0021483039 0.0015305368 0.00071339466 0.006328667 -0.00056659686 -0.0011522382 -0.0015126122 0.0011733634 6.5806169e-05 -0.0026089179 0.0065021347 0.0066678678 0.0011137764 -0.00084095128 0.0024639831 -0.001282954 0.0034230768 -0.0036330889 8.8129571e-05 -0.0034900161 -0.0018198668 0.0056880633 0.00162666 -0.0022844898 -0.000983131 0.0010835212 -0.00029621756 0.0022381309 0.00097408856 -0.0022441011 -0.0041823867 0.0071426099 -0.0012027819 0.0011577179 -0.0010858843 -0.0065352889 0.0015378802 4.6714817e-05 -0.0019317212 0.0028088295 0.0035605247 -0.0024128172 0.00408408 -0.002832043 -0.0043490347 0.0053762984 -0.0015764593 0.0021303727 -0.0056786719 0.0036988244 -0.0011214297 -0.0085936198 -0.0016027987 0.0025032025 -0.00080160354 -0.0027026075 -0.002613825 0.00053358282 0.00079874002 0.0014438656 -0.0063310382 0.0027237493 -0.00020778812 -0.0025952109 0.0039301184 0.0043651597 -0.0017734505 -0.0025961613 9.8271128e-05 -0.0015990041 -0.00098059676 0.0071688662 0.0075098155 0.00027455069 0.004145355 0.0062965541 0.0028424894 -0.0041170875 0.00084061129 -0.00023723493 0.0016840505 0.0068370532 -0.0034548861 -0.00084394112 -0.0021969813 0.0061607007 0.00089370628 0.00045186654 0.00018689602 0.001614502 0.00025139633 0.00099323399 0.002140892 -0.0047227424 0.0043177265 0.0070276433 -0.0007742974 9.6046745e-07 -0.0010284946 -0.0015176444 -0.0050724987 -0.01374649 0.0058360519 -0.0044922614 -0.0020859072 0.00079471135 -0.0012458501 7.1915259e-05 0.0017959017 0.00029198657 -0.0012253508 -0.0010231776 -0.0048884582 0.0050180606 0.0036002514 0.0075634033 -0.00011785196 -0.0026533362 -0.006618205 0.00017596356 -0.002223114 8.9666675e-05 0.0012711111 -0.00039567379 0.00028838892 -0.0023805478 0.0017545236 -0.0027378772 -0.0021501207 0.00072109664 -0.0037033365 0.0036400729 -0.0028634316 0.0030458502 -0.00052379142 0.0057982099 -0.0010331714 0.004218685 -0.0038748861 0.0020592117 -0.0026767149 -0.007274182 0.0008752849 -0.00075289136 0.0071032266 -0.00016703211 -0.00052282697 -0.0034781129 -0.0049882215 0.0033256686 -0.0031419899 0.0046914988 0.0038122667 -0.0015004388 0.0076297303 0.0016437282 -0.00039472 -0.0014158891 -0.0041168141 2.212559e-05 -0.0030053558 -0.0025586132 0.0070017669 0.0003641404 0.0045899972 -0.0033435475 0.004166807 -0.0032296611 -0.0036788855 -0.004175589 -0.0038182561 0.0001213805 0.0020354996 0.0041595274 -0.00019099572 0.00020174548 -0.0007524906 -0.006597267 -0.0025044859 0.0038484263 -0.0034846906 0.0026133207 -0.0020169481 -0.0031848142 -0.0016912542 0.00103402 0.0049868976 0.00064123492 0.0030360036 -0.0040458567 0.0007018419 0.00055785733 -0.0022527163 -0.0048802951 -0.0038588538 -0.00283131 -0.00032623037 -0.0055044261 -0.004240518 -0.00080938905 0.0039713522 -0.0029958861 -0.0013567997 0.0051664901 -0.0033907313 0.0030623942 0.0048890654 0.0010309417 0.0051882183 -0.001608888 -0.0067913118 -0.00014214734 -0.00042990208 -0.0027350737 0.0011594869 -0.0063768663 -0.0049607125 0.0073094647 -9.7673546e-05 0.0012003299 0.00041813406 -0.0056980685 0.0038959892 -0.0072838063 -0.00081030326 0.0042104847 -8.4888758e-05 -0.0010371392 -0.0035355107 0.00040301247 -0.0023906501 0.0018382994 -0.005133701 8.7538392e-05 0.0010481692 -4.6900281e-05 0.00026424791 0.0022143961 0.0074326396 -0.0072408658 -0.0037262107 0.0018359177 -0.007391273 -0.0033496362 0.0007546196 -0.0020482133 -0.0066099227 -0.00021816585 -0.0021815179 0.0026327081 0.0096059153 -0.002034375 -0.0024755008 0.0030804435 0.0032641233 0.00096256245 0.0012478904 0.0016622064 -0.0010529347 0.0041879136 -0.00099658489 -0.0052271006 -0.0035175125 0.0019031394 -0.001223075 0.00088329904 -0.00068019994 -0.0021916088 -0.0017946997 0.0010532246 0.0025049869 -0.0020728663 -0.006563968 -0.0013383741 0.0065646362 -0.0046128319 0.00052312855 -0.0028909931 0.0022454495 0.0019178186 0.0014777087 -0.0033810986 -0.0053365859 -0.0014678549 -0.0031127969 0.0020385578 0.0017545169 0.00094603741 -0.0008807652 -0.00062910776 -0.0011364841 0.00065348949 0.0035699971 -0.0055800667 -0.0011767014 -0.0030456751 0.012635482 -0.0018730365 0.0029399728 0.0031862811 0.0037914061 0.0096485373 0.0091283061 -0.002252314 0.0047290544 0.00096590869 -0.0031194452 0.0049311253 0.0059774597 0.0023004373 -0.0044107316 -0.01204046 -0.00039163796 0.00043463657 -0.0038986304 -0.0014211988 0.003630507 -0.007449294 0.0014174002 9.3107716e-05 0.002261366 0.0016292201 0.0049506417 -0.0017640808 0.0024487607 -0.0024648556 -0.0016436446 -0.0001151366 -0.0051701488 -0.00088326482 0.0025965604 -0.00058232044 0.0012634721 -0.0048894156 0.00057359197 -0.0047141127 -0.0094276611 0.00079492538 -0.0046504801 0.0020119746 -0.0012095185 0.0027842496 -0.0050606355 0.0043517379 -0.0025412526 0.0049454058 -0.0050955494 0.0031232452 -0.0031053396 -0.0020560531 0.0011883669 -0.00037520143 0.00036404296 -0.0051210192 -0.0038210331 0.00089488778 0.0036642447 0.0043955101 0.0035719213 -0.0030588156 -0.0019858587 0.0024372477 0.0012803281 0.0026690003 -0.0062801219
台风 -0.0015103779 0.0001577611 0.0010138417 -0.0051210788 -0.0029877047 0.0013852229 0.0048693465 -0.0014467717 -0.00862379 0.0012363812 0.003261162 0.0096838223 6.1198543e-06 0.0056475736 0.0003464093 -0.0030957125 0.00065953541 -0.00019608899 0.0052175992 0.0024158549 0.00042116331 -0.0041416381 0.0023041556 -0.0055569103 -0.0043258183 0.0027801611 0.0032115066 0.00048127034 0.0029590039 0.0005331267 0.002833111 0.00035544593 0.00021725234 0.0064900341 0.0063406285 0.0019988136 0.0013630937 0.0023558552 0.0094627803 -0.0010023786 -0.0032569771 -0.00073698501 0.00061776605 -0.0027693161 -0.003563113 0.0082525834 0.0087574478 0.00114061 -0.00095515838 0.003992008 -0.0023397016 0.003734692 -0.0059899334 0.0012101521 -0.0020757641 -0.0020432014 0.0064412607 0.003522113 -0.0036477447 0.0010990476 0.0021236972 -0.00042592475 0.0012744878 0.002319834 -0.002206228 -0.0036040335 0.0093602519 -0.0012901983 0.0046018348 -0.0017490748 -0.0090839434 0.00070175761 0.0004944317 -0.0024839772 0.0047358172 0.0042592054 -0.0037601176 0.00481368 -0.003773351 -0.004975121 0.0064435466 -0.0018589523 0.00385577 -0.0086778747 0.0067510358 -0.0018533135 -0.012786523 -0.00086523913 0.0038428032 -0.00052393024 -0.0038984809 -0.0036335636 -0.0012601886 0.00058532954 0.00056508771 -0.0089302007 0.0037286957 0.0012674205 -0.0020347394 0.0055395882 0.0049680201 -0.0017976175 -0.0060467585 -0.00034701719 -0.0022969265 -0.001205229 0.0096273078 0.011476142 -0.00024743803 0.0063805562 0.0071293074 0.0036329261 -0.0062949895 0.0010421119 -0.00077070191 0.0015278986 0.010035787 -0.0054693604 -0.0023182021 -0.0024514757 0.0095482841 0.0010916112 9.3354814e-05 0.0010519398 0.0006736879 -0.00052966207 0.0034567679 0.001480029 -0.0075709037 0.005749532 0.010153273 -0.0016815411 0.00057054905 -0.0016522293 -0.0011810556 -0.005436223 -0.019137135 0.0071001127 -0.0051756226 -0.002837254 0.0034827054 -0.0041529438 3.2013766e-05 0.00074986852 0.00096740521 -0.0032348584 -0.0029104443 -0.0057393308 0.0085953372 0.0067914976 0.011433969 0.00042009971 -0.0050421818 -0.0098447353 0.002864209 -0.0024995075 0.0009876414 0.00064666622 0.0012530677 0.0021591 -0.0021389043 0.0033572095 -0.0051428252 -0.0010369129 0.0029352272 -0.0054215644 0.0073571075 -0.0051667988 0.0042611104 -0.000730575 0.0063182656 -0.0040018698 0.0062219338 -0.0047715832 0.0043022898 -0.0027548417 -0.010787833 0.00024998756 -0.0014668829 0.010552727 0.0011265433 0.002262977 -0.0063363058 -0.0055564912 0.0074619856 -0.003253693 0.0068158433 0.0044455812 -0.0018740653 0.0092147253 0.002333309 -0.001402812 -0.0030055854 -0.0077350005 -0.00053693267 -0.0042214612 -0.0056474986 0.010297229 0.00034642598 0.0045067007 -0.0046596406 0.0077753956 -0.0036416014 -0.0048161717 -0.0076639233 -0.0073820371 -5.890926e-05 0.00098424789 0.0045184693 -0.0018442561 -0.0018206129 -0.0030868505 -0.0081027392 -0.005172763 0.0067482563 -0.0044691893 0.0040695965 -0.0016771406 -0.0045018117 -0.0032852788 0.0011800213 0.0055813477 0.0021613527 0.0057732994 -0.0051110494 0.00034596887 0.00044915648 -0.0042466153 -0.0077018384 -0.0041353814 -0.0034980245 -0.0010611624 -0.0085083665 -0.0057007577 -0.00039135787 0.0070422213 -0.0058355602 -0.0026829939 0.0059369127 -0.002515954 0.0025020055 0.008048825 0.002639259 0.0088696713 -0.0025159505 -0.0077954642 -0.0021864907 -0.0004301242 -0.004429928 0.0044002081 -0.0081198448 -0.0068307808 0.0093834577 0.0010371322 0.00034626693 0.0015203353 -0.0091255922 0.0041535753 -0.0093805753 -0.0012775536 0.0060310219 -0.00046370574 -0.0031815525 -0.0036238753 0.002351257 -0.0014372754 0.00082198437 -0.0071466817 -0.00041148739 0.00029351166 0.00023986776 -0.0010637657 0.0037324054 0.010092022 -0.011446762 -0.0075735608 0.0022969146 -0.0076522934 -0.0037754835 0.00010550079 -0.0037358366 -0.0099706873 0.00013233577 -0.0026978606 0.0029213142 0.01210645 -0.0019586801 -0.001623643 0.0019631735 0.006407802 0.0014654764 0.00263453 0.0015326956 -0.00015054808 0.0061178836 -0.0038449944 -0.0083976015 -0.006104419 0.0015590822 -0.0022785366 -0.00039337933 -0.0030159678 -0.0032128592 -0.0025526572 0.0017453688 0.002891354 -0.0047567254 -0.0080458978 -0.00096994569 0.0094651105 -0.0044065551 0.0010194685 -0.0053200461 0.0023713338 0.0014420872 0.0018264093 -0.004582684 -0.0073757335 -0.00068893476 -0.0033558297 0.0041084811 0.0025132699 -0.00053447013 3.6308051e-05 -0.00023913136 -0.00058662717 -0.00088499096 0.0039305505 -0.0072787763 -0.00097466924 -0.0032222839 0.020228313 -0.00088468951 0.0063184351 0.0030557902 0.0050259237 0.012229439 0.012340051 -0.0050056181 0.0057836846 0.00075355242 -0.0065280609 0.005488792 0.0087499162 0.0051696934 -0.0076482948 -0.01709602 -0.00078993465 0.00083035865 -0.0083762482 -0.0016987068 0.0029717565 -0.010002248 0.0026242053 -0.00024791254 0.0036400068 0.0040911222 0.0080036474 -0.00021462854 0.0035942276 -0.0013151069 -0.00024880073 0.00017260776 -0.0055803279 -0.0019266619 0.0043041734 -0.00048169144 0.0015121433 -0.0093133245 0.0023653365 -0.0055541308 -0.011333038 0.0016889574 -0.0085233329 0.00019936943 -0.0020726491 0.0033446245 -0.0090236329 0.0081435107 -0.0031991033 0.0076581296 -0.0051887156 0.0032954826 -0.0051420382 -0.0058842669 0.00042580944 -0.00098633976 -1.1484292e-05 -0.0068585603 -0.0048288517 0.0023948504 0.006548903 0.0058257333 0.0047631068 -0.0045809639 -0.0037645558 0.0035452941 0.0027788321 0.0030047747 -0.0093027316
- -0.0017017951 -0.0012340022 0.0013947168 -0.0029140513 -0.0018495017 0.0012460549 0.0042267791 -0.0023337475 -0.0045226254 -0.00022293211 0.0028009734 0.0050065559 -5.0676186e-05 0.0045601963 -1.1592357e-06 -0.0012085753 0.00029601829 -0.0014362878 0.0024652116 0.0014215166 0.0015036922 -0.0044546672 0.001500317 -0.0025623813 -0.002027771 0.0029557485 0.0026552165 0.00069908035 0.0026613502 -0.0015309625 0.0020614828 -0.00040560734 0.00011130965 0.0050382791 0.0049636373 0.0025573794 0.0027167355 0.0018388972 0.0048389076 -5.1961615e-05 -0.0027220829 -0.00082988245 0.00094562757 -0.00043745647 -0.0017836028 0.0062654368 0.0074884538 0.0023735818 0.00092972186 0.0014124168 -0.0012782413 0.0038838768 -0.0032308695 0.0016436236 -0.0033559185 5.4642282e-05 0.0054551838 0.0039276858 -0.0022605103 -0.00086952455 0.00089649687 -0.00099066331 0.0012203545 0.0015619722 -0.001997588 -0.0020897256 0.0061242292 8.1050843e-05 0.0013233681 0.00028751712 -0.0063620051 -0.00028171946 0.0010169201 -0.00062438054 0.0038980232 0.0021368831 -0.0033443659 0.003977424 -0.0034936264 -0.0034009914 0.002939723 -0.002030218 0.0030547979 -0.0062693111 0.0033773701 -0.0010109412 -0.0093563357 -0.0016716761 0.0027337717 -0.00062112405 -0.0031516226 -0.0015341591 4.871377e-05 0.00093551917 0.0017899806 -0.0065499512 0.003796821 0.00090113975 -0.00085003738 0.0029373544 0.0024168899 -0.00058821897 -0.0039597056 -0.0012283305 -0.002000099 -0.0010671393 0.0059203035 0.0074348608 0.00031830414 0.0031226566 0.0046351114 0.0018820926 -0.0061678062 0.00032282618 2.9367193e-06 0.001948131 0.0050845514 -0.0026168153 -0.0015838449 -0.0022763819 0.0068903789 -0.00034002485 0.0015363594 0.000755254 0.0019030728 -0.0020635757 0.0022461095 0.001075394 -0.0058633764 0.0047243796 0.0059656636 0.00015221351 -0.00022665464 -0.00029497076 -0.0026183294 -0.0041801701 -0.01281738 0.0043270634 -0.0031850371 -0.0015682954 0.0024362402 -0.0017699806 0.00064574979 0.0013472043 0.00089643861 -0.00096878991 -0.0012424592 -0.0051824767 0.006411734 0.0039889892 0.0067872531 -0.00027446781 -0.0043628472 -0.0054008435 0.0019017626 -0.0034473462 0.00075791538 0.00083727384 0.0002456755 -0.00010097831 -0.0011546258 0.0018455229 -0.0015911191 -0.00054398726 0.00089262379 -0.0035732083 0.0042739152 -0.004248301 0.0031817551 -0.00092064531 0.0056726234 -0.0016401173 0.004342563 -0.001800652 0.0029807081 -0.0012554444 -0.006496313 -0.0010278779 0.00022767272 0.0056916955 0.0010534714 0.0012418128 -0.0044033299 -0.0045379512 0.0048605399 -0.0013501894 0.006483288 0.0023819162 -0.00072626019 0.0075795809 0.0015151106 -0.00029373571 -0.00098612101 -0.0061052367 -0.0021705532 -0.0029612209 -0.0047548637 0.0051089991 0.00039892882 0.0047116783 -0.0038255393 0.0045292811 -0.0043916656 -0.0042118193 -0.0065191439 -0.0061674016 0.00062491797 6.6045533e-05 0.004311007 -0.0030775485 0.0001593826 -0.0029242828 -0.0065009664 -0.0028266748 0.004507049 -0.0025114869 0.0013370736 -0.0023030827 -0.0027806717 -0.0015888889 0.00020549657 0.0058945967 0.00082536513 0.0045274766 -0.002589053 -0.00077506347 0.001376368 -0.0021182927 -0.0061758044 -0.0027709871 -0.0023082881 -0.0024804103 -0.0062654265 -0.0044386294 0.00054445019 0.0052818987 -0.0042793653 -0.0025281343 0.0056367409 -0.0023888664 0.002270021 0.0067360629 0.0008338709 0.0070477566 -0.0014587365 -0.0070254919 4.220982e-05 0.00016085085 -0.0026942787 0.0023038925 -0.0066484944 -0.0052625523 0.0063902885 0.0019786397 -0.00038752254 0.0012664775 -0.0068194862 0.0041998643 -0.0076872385 -0.0003984338 0.0046771048 -0.00081392733 -0.0020440954 -0.0021569883 0.00034003484 -0.0014286516 0.0015484683 -0.0050695091 -0.00035716727 0.0016804449 0.0011878357 -0.0011745229 0.0027589377 0.0082247723 -0.0079651596 -0.0048171356 0.00058857724 -0.0059573515 -0.0014727744 -0.0010407695 -0.0014685226 -0.0072334134 0.0017625702 -0.0015912246 0.0019154141 0.0098935273 -0.002443854 -0.0017169635 0.0014489949 0.0047933017 0.0010641686 0.00094784342 0.00095947692 -0.000310367 0.0030547024 -0.00081623241 -0.006126869 -0.0037337581 -0.00038376023 -0.0018972298 -9.930948e-05 -0.0011307608 -0.0019358471 0.0001363826 0.0021277587 0.0013107689 -0.0039498368 -0.0062977094 0.00021885542 0.008033474 -0.0044680717 0.0019392339 -0.004792315 0.0014376095 0.0010336662 0.0004475851 -0.0027869064 -0.004538802 -0.00076343078 -0.0035348306 0.0028127157 0.00071690144 0.00022996411 0.0010464002 -0.00039104233 -0.0007920271 0.00034495231 0.0037933481 -0.0052207038 -0.00048609855 -0.0022127575 0.015000953 -0.00036151777 0.0051271762 0.0032072 0.0045683729 0.0077485223 0.0092821801 -0.0022041178 0.0043390468 0.0012974109 -0.0032377739 0.0056524393 0.0045184917 0.0035250674 -0.0049727093 -0.011448577 -0.00053723675 0.0024629238 -0.0055061583 -0.00020786912 0.0023437464 -0.0065824608 0.0018327056 0.00077329401 0.0011848143 0.0031345177 0.0039612893 0.0004305646 0.0033132515 -0.0012360463 -0.00090318464 4.7487323e-05 -0.0027973531 -0.00068858924 0.0011827103 -0.0014268594 0.0011241798 -0.0049471552 -0.00031761202 -0.0032175886 -0.0084525384 0.00036737864 -0.0070362655 0.0017303906 -0.0022882347 0.0039870534 -0.0072137052 0.0042928685 -0.0023476968 0.005648999 -0.0040342393 0.003344591 -0.0050172606 -0.0041332976 0.0008493248 0.00019911819 -5.7158006e-05 -0.0052574454 -0.0037548984 0.002236156 0.004370016 0.0023118607 0.0046307761 -0.0015989866 -0.0010760818 0.0029133735 0.0022969567 0.0013531318 -0.0067893942
世界 -0.0012301235 -7.0121918e-05 0.00086600217 -0.0044388422 -0.0022021821 -0.00046480994 0.005285678 -0.002860747 -0.0075158658 0.0004077263 0.0034029745 0.0083073368 0.0014861205 0.0066840667 0.00040714064 -0.0012941029 -0.00022242036 -0.0014437437 0.0037059344 0.0023038087 0.00046006238 -0.0057633747 0.0020317107 -0.0037644918 -0.002592237 0.0027993168 0.0015429214 0.0014522584 0.0029527044 0.00084764301 0.0028361008 0.0010352585 0.0007688012 0.0059290044 0.0041453075 0.0011603979 0.0030175513 0.0021226024 0.0063671242 0.00033868384 -0.0036191049 -0.00060400675 0.00067549647 -0.0010189604 -0.00417449 0.0085827988 0.0080736531 0.0029924286 -0.0010174217 0.0025924996 -0.0031291223 0.0048300494 -0.0048012477 0.0013300942 -0.0029022023 -0.00025388337 0.0058889342 0.0049482509 -0.0015095396 0.0014944108 0.00024858362 -0.0010839788 0.0019336531 0.0013765637 -0.0025496869 -0.0038371789 0.007166991 -0.0018034325 0.0038055577 -0.0012748875 -0.0064305873 0.0010866543 -0.00082195445 -0.00071284029 0.0048591853 0.0046361596 -0.0041103871 0.0045794966 -0.0040819901 -0.0060063303 0.0057522408 -0.00079143897 0.0048325667 -0.008784472 0.0057631298 -0.00038218618 -0.011784936 -0.0009260971 0.0028819095 -0.0011896755 -0.0045885923 -0.0029435426 0.00020537882 0.00031321676 0.0013899729 -0.0065432512 0.0043090363 -0.00083286082 -0.0035160324 0.0066554225 0.0034990697 -0.0021737057 -0.0056509101 -0.0013539644 -0.0023218754 -0.00035977946 0.0092301946 0.010045871 0.0020911444 0.0057986304 0.0076455399 0.0010570294 -0.0065604011 0.00085157435 -0.0010896041 0.0023059295 0.0082126511 -0.0027813353 -0.0030869546 -0.0031239449 0.008742664 9.7558441e-05 0.0014156692 0.0013664317 0.0016247985 -0.00059114199 0.0038126984 0.0029020675 -0.0061977138 0.0054709418 0.0092199761 -0.0020730111 -0.0014036221 -0.000395526 -0.0022014757 -0.006319121 -0.017154144 0.0066605387 -0.0049470472 -0.0036791649 0.0017353033 -0.0032519647 0.001154494 0.0023796756 0.0018839122 -0.0020399953 -0.0030192253 -0.0046776417 0.0069270935 0.0065187733 0.0093044415 0.0010005443 -0.0036880537 -0.0073645329 0.0016493977 -0.003244472 0.0004627743 -0.00059713045 0.001882556 0.0014160956 -0.00093854428 0.0027070795 -0.0045097717 -0.0014761671 0.0029449021 -0.0048836488 0.0063746921 -0.0045794207 0.0048590503 -0.0011394682 0.0069766683 -0.0018022968 0.0055412776 -0.0039391196 0.0035912353 -0.0014922365 -0.0098031536 0.00010906682 -0.00087711518 0.0096867755 -0.00026250913 0.0016319675 -0.0071847676 -0.0059920801 0.0050503598 -0.0030307076 0.0071379119 0.0035863088 -0.0034874929 0.0095843384 0.0023739391 0.00060747075 -0.0028886059 -0.00530806 -0.0021103513 -0.0043097585 -0.0058075106 0.0078393565 0.00034651419 0.0041793855 -0.0032684363 0.0062011387 -0.0044128639 -0.0060862061 -0.0079038376 -0.0060114097 0.001932442 0.00032187329 0.0053690765 -0.0035422095 -0.0016352446 -0.0037491389 -0.0076942709 -0.0034032767 0.005892159 -0.0033243231 0.0021893452 -0.00062488712 -0.0037541436 -0.0029540805 0.00017150684 0.0058875466 0.0014655415 0.0043156911 -0.0046960423 -0.00088529073 0.00021100213 -0.0043926346 -0.0066658519 -0.0058321599 -0.0034987319 -0.0026739887 -0.0069267526 -0.0042777462 0.00048162453 0.0068274019 -0.0047503463 -0.0012195571 0.0050011179 -0.0034298077 0.0032967846 0.0075766183 0.0018453067 0.0080766343 -0.00081814651 -0.0070653609 -0.000279534 6.2529332e-05 -0.0019880263 0.0039796964 -0.007153654 -0.0062994952 0.0077080275 0.0022095856 0.00099171291 7.1057628e-05 -0.0071323947 0.0038957156 -0.0086078066 -0.00097036629 0.0043709963 -0.0012087066 -0.0015473689 -0.0022359416 0.0020425047 -0.0021388384 0.0009566134 -0.0067641549 -0.0013550015 0.0010579065 0.0015255429 0.0013251889 0.0017284441 0.0094746603 -0.010218704 -0.0055683735 0.0023135778 -0.0073719854 -0.0026711826 -0.0014335359 -0.0015642892 -0.0083525181 0.001515563 -0.0028186464 0.0037381195 0.012195418 -0.0015706684 -0.0038481976 0.0031223523 0.00581735 0.0030574386 0.0013802144 0.00066449627 -0.00024844278 0.0048768162 -0.002876322 -0.0068092267 -0.0053982129 0.0013652012 -0.0034469152 6.9437141e-05 -0.0033083621 -0.0021925177 -0.00086732622 0.001332546 0.0032065185 -0.004189516 -0.007435665 -0.0011919963 0.0098698791 -0.0047398456 0.0011266521 -0.0052198167 0.001770618 0.0018290839 0.00093533372 -0.0038959694 -0.0052900533 -0.001448181 -0.0027831951 0.0051500052 0.0016207738 -0.00017383436 -0.0004242188 0.0011650565 0.00064338616 -0.0013293327 0.0035411429 -0.0053252308 -0.0018012691 -0.0034838133 0.018623231 -0.00017082818 0.0064818743 0.0031370146 0.0056149764 0.010923991 0.01126775 -0.0030286361 0.0053758868 0.0011929889 -0.0063231466 0.0056743897 0.0063028289 0.0049567106 -0.0064045414 -0.01467718 0.00043319227 0.001532488 -0.0066939704 -0.0028689534 0.0032317634 -0.01047123 0.0014598388 0.00043898803 0.003754769 0.002984975 0.0064245914 -0.00045841272 0.0037894936 -0.0015615408 -0.00028013153 -0.0015516991 -0.0060414271 -0.0019149914 0.0040870034 -0.00030926356 0.0032081227 -0.006567067 0.00035507095 -0.0049984441 -0.01188089 0.0016374133 -0.0082748029 0.00094820204 -0.0020254739 0.0027580173 -0.0071902797 0.0070635891 -0.0039228341 0.004661127 -0.0062655699 0.0047529433 -0.0040428555 -0.0037324941 0.00023438405 -0.00046408552 3.0581581e-05 -0.0060413284 -0.00368251 0.00077532936 0.005745939 0.0056608757 0.0056448015 -0.0031150242 -0.0022728504 0.0020992672 0.0021570807 0.0033401563 -0.0075403722
与 -0.00093227776 -0.0017000959 0.00079828402 -0.0025387933 -0.00016583 0.00089963392 0.003692663 -0.0015722567 -0.0036673185 0.00099087029 0.0020313598 0.0051736236 0.00088558591 0.0028270534 0.0011360201 -0.0015455905 -0.00015669675 -0.0014639936 0.0036444389 -4.8412388e-05 -0.0002686849 -0.0039008679 0.00098125893 -0.003677919 -0.0029300419 0.00049356272 0.0015166159 -0.00078502047 0.0032918397 -0.00089502835 0.0011751639 -0.00079875934 -0.00010820291 0.0037900836 0.0026509415 0.0023631183 0.00057387346 0.0022870235 0.0054702959 -0.00013475535 -0.00066304585 -0.00026391007 0.0018083287 -0.0015786532 -0.0023059053 0.0048527843 0.0060738097 0.0024865316 -0.00030923093 0.0027253206 -0.000770677 0.003394437 -0.0035811409 0.0010229977 -0.0022661884 -0.0014137323 0.0049755815 0.0030505855 -0.0014596332 0.00139859 0.00061518908 -0.0013642424 0.00090167561 0.00074712775 -0.0013487282 -0.0026332224 0.0038904152 0.00039942615 0.0011058151 -0.00051937706 -0.0043557645 0.0010892798 -0.00048551901 -0.00026069229 0.0013368548 0.0013861374 -0.0013680746 0.0018208147 -0.003617614 -0.0044086408 0.0032910716 -0.00091466837 0.0020845623 -0.0056206388 0.0039078128 -0.00047696102 -0.0075295526 -0.00095028116 0.0026475149 -0.00062308041 -0.0028083853 -0.0011962542 0.00038078846 0.00067468098 0.0016070796 -0.0038662418 0.0017617694 0.00072291703 -0.0029455218 0.0042831968 0.0021251589 -0.0012749294 -0.003928266 -0.00058465428 -0.0013388558 -0.0012321349 0.0051506357 0.004844836 -0.00041553844 0.0023033875 0.0038979112 0.00078483176 -0.0048855124 -0.00065069663 -0.00027947818 -0.00020937991 0.0048536509 -0.0016921532 -0.0022271457 -0.0015163695 0.0041283164 -0.00050010538 0.00091044459 0.001734307 0.0002610652 -0.0014481074 0.0022982734 -0.00020019138 -0.0053654471 0.0028611962 0.0063872482 -0.0012144508 0.00032798873 -0.00053659937 -0.0017969535 -0.0029315869 -0.010030109 0.0039039603 -0.0035445564 -0.0026634787 0.0021657492 -0.0027273365 0.0010588813 0.001318288 0.0013001753 -0.0018657258 -0.0010170699 -0.0027574522 0.0055714729 0.0038847714 0.0063451091 -6.1453924e-05 -0.003251648 -0.0056504942 -0.00014384772 -0.0012890096 0.0014239158 -5.8851187e-05 -0.0002382559 0.0014453174 -0.0020054926 0.0025582579 -0.0016758658 -0.0010635959 0.0024386381 -0.0045423349 0.0045339484 -0.0018008829 0.0024409951 -0.00095555803 0.0049879728 -0.0025901624 0.0042547556 -0.0024472133 0.0024553447 -0.0019022182 -0.0074079926 -0.00068469305 -0.0011688581 0.0057826629 0.0005690807 0.00026190278 -0.0034858077 -0.0033399514 0.004227988 -0.0010221524 0.0053857751 0.0021967005 -0.0021706999 0.0055404757 0.00023087925 0.00023232876 -0.0024366572 -0.0044171372 2.0914293e-05 -0.0031494398 -0.0019947561 0.0053437175 -0.00031629406 0.0021906244 -0.003032652 0.0042237416 -0.0034802626 -0.0036210129 -0.0038856198 -0.0050245868 0.00039719773 0.0013144014 0.0025061332 -0.00090217247 -0.00057402195 -0.0012584768 -0.0037744264 -0.0024434002 0.0031022197 -0.0029695514 0.002620161 -0.0010741361 -0.0036109539 -0.001630548 -0.00049437472 0.0034697431 -0.00051532115 0.0027083419 -0.0017443403 0.0012755689 2.8842192e-05 -0.001682695 -0.0031462964 -0.00271027 -0.0022730913 -0.0018429653 -0.0049269339 -0.0026348399 0.00035195335 0.003157709 -0.0042875237 -0.0013919392 0.003996898 -0.0020961994 0.0025768834 0.0037862877 0.00043242043 0.005522341 -0.0010980428 -0.0046866508 -0.00091892516 0.00059848413 -0.0028265489 0.0023842012 -0.0052808085 -0.0020935556 0.0052482388 0.0016484633 0.0004717125 0.00059041579 -0.0057061547 0.0021819901 -0.0055128168 -0.0015639561 0.0038978751 0.00020116565 -0.0018169041 -0.0017974854 0.001011553 -0.00072583213 -0.00021200029 -0.0034219909 -0.00053177617 0.0015037709 -1.7439235e-05 -0.00035238822 0.00030418669 0.0053102346 -0.0070319762 -0.0043470128 0.00062984554 -0.0051108347 -0.0017871526 -0.00081473315 -0.00062728045 -0.0052309101 0.0001906554 -0.00073824095 0.00079058809 0.0083535453 -0.0011590202 -0.0009893527 0.0021831116 0.0026618487 0.0025690042 0.00081592519 0.00022982078 -0.00071354938 0.0027769634 -0.0015696684 -0.0052868947 -0.0027751473 0.00065976795 -0.0021617354 0.00065024261 -0.0019300909 -0.002605615 -0.0012119989 0.0011671176 0.00094001921 -0.001293956 -0.0059839468 -5.5928605e-05 0.0062268297 -0.0037956368 0.0013674106 -0.0027016895 0.00057647523 0.00026278838 -1.5472831e-05 -0.0016272615 -0.0027658835 -0.0012294466 -0.00079455727 0.0030790414 0.0019420157 0.0011572744 -3.0929514e-05 0.00047553229 0.00043190786 0.00053050841 0.002225575 -0.0029902449 -0.0021773607 -0.0032503416 0.011604961 -0.0014016778 0.0038611765 0.0023205082 0.0032949876 0.0082570137 0.005965238 -0.0034845229 0.0030388734 0.00077892671 -0.0044063726 0.0039722421 0.0045798691 0.003557266 -0.0028418859 -0.0099882642 0.00052436424 0.0020764081 -0.0039091688 -0.00044793324 0.0011566438 -0.0048579774 0.0010418762 -0.00032937381 0.002691193 0.0027324369 0.0039759059 0.00050267001 0.00145475 -0.002522927 -0.00063305546 0.0003556989 -0.0034552142 -0.0013828755 0.0012045301 -0.0020320134 0.00055483455 -0.0051037846 0.00071185984 -0.0033728278 -0.0080990512 0.0019790814 -0.0051554153 0.0015788501 -0.0018750568 0.0034471448 -0.0053038718 0.0031613761 -0.0025680861 0.0048498302 -0.004063502 0.0027262745 -0.0039330507 -0.0037749838 0.00056296156 0.00033348193 0.00026244484 -0.0041500563 -0.0017839696 0.0012554956 0.0040845727 0.0019897751 0.001729611 -0.001293838 -0.0011975932 0.0032264653 0.002511227 0.00029573747 -0.0056129703
年月日 -0.0017617503 -0.00082037383 0.001969015 -0.0060409387 -0.00087993301 -0.0010160949 0.0062960992 -0.0028051254 -0.0075384476 -0.00040153053 0.0020600667 0.0089612138 0.00049184693 0.0060232203 0.0016228575 -0.0011193064 0.00063543214 0.00036263358 0.0044388846 0.00068838114 0.00099291163 -0.004688371 0.0020142989 -0.0041645747 -0.0016640452 0.001333709 0.0026143291 -0.00059737894 0.0025956803 -7.869929e-05 0.00096325116 0.0010726481 0.0011046423 0.0065532271 0.0053941272 0.0011730747 0.0020723562 0.0015956517 0.0076091262 0.00077431393 -0.002766341 0.00022818855 0.00071526837 -0.0025652628 -0.003720589 0.0074893381 0.0084818341 0.00083604059 -7.0705239e-05 0.0032599168 -0.0031787211 0.0050309398 -0.0050886804 -0.00012559086 -0.0040167123 -0.00154218 0.00637725 0.0037606242 -0.00088141009 -0.00049456238 0.0023059114 -0.00027040741 0.0019329649 0.0019816135 -0.0031318059 -0.0046524191 0.0091618411 -1.7910679e-05 0.0018129755 -9.2463124e-05 -0.0084773442 -8.5852356e-05 0.00048419696 -0.0028504687 0.0035870587 0.0041962848 -0.0033080257 0.0038966506 -0.004808771 -0.006190151 0.0051139351 -0.0024298239 0.0044659986 -0.0092687458 0.0064877481 -0.00145296 -0.010958849 -0.0013992563 0.0031093906 0.00022953122 -0.0049940096 -0.0024245062 -0.001468403 -7.7429962e-05 0.0014512507 -0.0073705357 0.0053490438 0.0010755201 -0.0024074316 0.0043054582 0.0031588783 -0.00033974167 -0.0047649043 -0.00029777474 -0.0020060919 0.00017689989 0.0076994277 0.0088466937 0.0018240641 0.0046054176 0.0069960644 0.0018516461 -0.0077644782 0.0017047756 -0.00076671591 0.0030445196 0.0091728996 -0.0038441727 -0.0035751616 -0.0020185069 0.0084439795 0.0018305229 1.2757815e-05 0.00085597136 0.0016249801 -0.00044262712 0.0043570912 0.00094758224 -0.0067263618 0.0043335627 0.0082266107 -2.3970313e-05 0.00068750262 -0.00055346289 -0.0030207909 -0.0056786644 -0.016510546 0.0074286954 -0.0034173555 -0.0036746496 0.0028472398 -0.0018306359 0.0013282907 0.0017806811 0.0022134199 -0.0030408553 -0.0026114001 -0.0042997533 0.0070113358 0.0068548084 0.0099242348 0.00066119723 -0.0054508839 -0.0079224603 0.0030025465 -0.004221851 0.0018728594 0.0013892982 0.0011060311 0.0026080417 -0.0029531461 0.004003834 -0.0033481831 -0.00043694273 0.0016747502 -0.0056519271 0.0064140041 -0.0029604039 0.0031548422 -0.00077548035 0.0065057427 -0.0037480521 0.0051086619 -0.0026550004 0.0040534479 -0.0021994021 -0.010929177 0.00021783849 -0.0021369818 0.0079451827 0.0016506934 0.001076912 -0.0059866961 -0.006439487 0.0055890363 -0.0036267003 0.0078241536 0.0043999157 -0.0022963875 0.0088605974 0.0016136403 -0.00030033887 -0.0017099995 -0.0073946989 -0.0021059755 -0.0039860397 -0.0043195304 0.0091495505 -0.0010514198 0.0035050588 -0.0049380097 0.0062456895 -0.0039476226 -0.0056069111 -0.006215306 -0.0078281863 0.00047342782 0.0019741962 0.0054715355 -0.0019148593 -0.0023363137 -0.0034514375 -0.0088220239 -0.0033468492 0.0056685004 -0.0051748687 0.0036405469 -0.0005091069 -0.0049919453 -0.0013011878 0.0016715751 0.006226426 0.0007359673 0.0053946069 -0.0051467954 -0.00059779448 0.0003802001 -0.0032557063 -0.0070800916 -0.0051419209 -0.0038313668 -0.00089696975 -0.0062530818 -0.003247784 -0.00056976918 0.0052626473 -0.0067546377 -0.0021408724 0.0068795653 -0.0022731507 0.0013547417 0.0071112295 0.0020512892 0.0080608353 -0.0019813846 -0.0079968981 -0.0027299169 -0.00039733894 -0.0039299326 0.0020945792 -0.0088422801 -0.0046838881 0.0087210396 0.0026852656 -0.00059241697 -0.00033080933 -0.0076442994 0.0057164044 -0.008952816 -0.0019075806 0.0062413509 -0.0010542773 -0.0031601205 -0.0029177256 0.0014107918 -0.0015370559 0.00070144678 -0.0066188653 0.00050270883 0.00022440955 -0.00045256584 0.00062724977 0.002368358 0.008478676 -0.0095058875 -0.0065456675 0.0016437863 -0.0077512157 -0.0042311652 0.00018876413 -0.0022840051 -0.006998573 5.7891066e-05 -0.0014689707 0.0038552622 0.012856422 -0.00257813 -0.0029740883 0.0028391369 0.0049001267 0.0029085441 0.00065284368 0.00042343192 -0.00043742722 0.0050570532 -0.0021709846 -0.0061564706 -0.0053239684 0.00015129516 -0.0029920123 8.1581593e-06 -0.003058302 -0.0030728567 -0.0024362917 0.0014993073 0.002060595 -0.0046203355 -0.008509866 0.00077566254 0.0097898822 -0.0042638332 0.0011713129 -0.0064088455 0.0036086116 0.0017745349 0.0020588182 -0.0025833631 -0.0070968992 -3.0346744e-05 -0.0043926663 0.0044335979 0.00028344701 -0.00077586097 -0.00075186376 -0.00061326282 0.00097174954 -0.0012717743 0.0043556038 -0.0058902893 -0.0019307252 -0.0031602797 0.018466869 -4.3107557e-05 0.0045809634 0.0026475505 0.0044290419 0.013063875 0.012095823 -0.0027911216 0.005670541 0.0020207341 -0.0059823589 0.0052026655 0.008337386 0.0047908276 -0.005181036 -0.015698038 -0.00051871454 0.0010992952 -0.0075528463 -0.0010564686 0.0037952228 -0.0099728443 0.0030283255 0.00095753954 0.0033390268 0.0038649275 0.0065492699 -0.00083449204 0.0015311112 -0.0011102315 -0.0017836255 -0.0011694828 -0.005077933 -0.002696963 0.002666587 -0.0015367655 0.0019103497 -0.0075633368 0.0006348574 -0.0050185341 -0.010640331 0.0022169442 -0.0067471704 0.0016339445 -0.0029499198 0.0033764935 -0.0067203529 0.0055769645 -0.0044399831 0.0053715999 -0.0057645203 0.0027866901 -0.0059290142 -0.0043940688 0.00053555012 -0.0017548486 -0.0020328846 -0.0066524097 -0.0039963461 0.0018074133 0.0063956631 0.0044411113 0.0038519977 -0.0044613145 -0.0016493601 0.0029642517 0.0011235175 0.0016530524 -0.0085522654
型 -0.00089275581 -0.00089566945 0.0015089388 -0.002434436 0.00014303866 0.00068194087 0.0032471018 -0.0018824148 -0.0038575542 0.00037787267 0.0015661663 0.0059195934 0.0003934314 0.0047155507 0.0010045641 -0.00025452964 0.00063107943 -0.00028465164 0.0023378106 0.00085843063 -4.3790027e-05 -0.0022867569 0.00087218592 -0.0027374802 -0.00072074658 0.00079213287 0.0015465479 0.0006299651 0.002688929 0.0010893811 0.00051652186 0.00029147553 0.0010831823 0.0040470865 0.0038177285 0.0015753948 0.0026406043 0.001682154 0.005314271 -0.00048312088 -0.001308369 -0.0016313225 0.0018893492 -0.0022581893 -0.0012352404 0.0047230623 0.0056482502 0.00071733119 4.0069677e-05 0.00089866453 -0.0017839933 0.0023577367 -0.0038279239 -0.00028865007 -0.0031532606 -0.00023620485 0.0040163565 0.0034795932 -0.0022471731 -7.9200327e-05 -0.00017493354 0.00085104204 0.00031179673 0.0017641003 -0.0023766768 -0.0022232793 0.0050676083 -0.0011989108 0.0028712691 -0.00092801452 -0.0053514424 -0.00024305627 -0.00066533452 -0.0016668255 0.003183776 0.0023374746 -0.0013454133 0.0037464844 -0.0019905758 -0.0045964415 0.0046140421 -0.0011971699 0.0021984447 -0.0060545513 0.0033196905 -0.00099127612 -0.0058777416 -0.002212846 0.0014081043 -0.00078386825 -0.0030356636 -0.00094305235 -0.00035898533 0.00024034474 0.00077015511 -0.0037253795 0.0032534166 0.0001275534 -0.00058301707 0.0038551949 0.003001357 0.00030786489 -0.0041665635 -0.00065858377 0.00016546382 -4.1190917e-05 0.005172791 0.0074174218 0.0018701825 0.0043603149 0.0057710921 0.0013157991 -0.0032262641 0.0017297306 0.00052500213 0.0015875993 0.006134863 -0.0035217891 -0.0022147109 -0.00093853666 0.0056460188 0.00054299709 0.00013234667 0.00066904572 0.001788519 0.00011621164 0.0023196151 0.0020711438 -0.0053331573 0.0023113517 0.0074206707 -0.00081475923 0.00020186818 0.00021383225 -0.0015770791 -0.0043356451 -0.011657695 0.0041339174 -0.0035742775 -0.0022824374 0.0023240405 -0.0026141233 0.00022839027 0.00028331188 0.00033191912 -0.00025272835 -0.00073192205 -0.002556023 0.0050344043 0.0027388069 0.0072324337 0.0007053967 -0.0043023149 -0.0064634494 -4.7829279e-05 -0.0034244251 -0.00063399016 0.00064824254 0.0013987803 0.00013803178 -0.0016571657 0.001155601 -0.0022761864 -0.0012430327 0.0017879554 -0.0032076549 0.0037545369 -0.0012756095 0.0039233603 0.00074394746 0.0031904837 -0.00085401477 0.003426055 -0.0034539255 0.0018457506 -0.0015169746 -0.0078432122 0.00134884 8.1301128e-05 0.0053832787 -0.00050109264 0.0020034609 -0.003219299 -0.0043804641 0.0040290542 -0.0002267513 0.0043721218 0.0032234089 -0.002381074 0.0052004205 0.0017428069 0.00057013211 -0.0017017722 -0.0057798098 0.00041700166 -0.0021512257 -0.0021873058 0.0049470253 -0.00063366402 0.0036315732 -0.0039201733 0.0054055587 -0.0040009329 -0.0039874054 -0.0033787431 -0.0032464189 -0.00054213486 0.00093160302 0.0035913407 -0.0025334177 -0.0010064973 -0.0022598852 -0.0039243652 -0.0022979388 0.0031123003 -0.0039231442 0.0021173705 -0.0017284582 -0.0036764371 -0.0013164434 3.8263181e-05 0.004343404 -0.00024543772 0.0037895506 -0.0018436557 -0.0004263357 -0.0010542264 -0.0024115874 -0.0054445677 -0.0039058833 -0.0028537014 -0.0024757464 -0.0048611383 -0.0032756808 -0.00059014623 0.0030418537 -0.0038386532 4.3343713e-05 0.0047316882 -0.0028368132 0.0007377427 0.0056468821 0.0015463925 0.006034343 -0.0017024949 -0.0055973092 -0.00051936868 0.0012646446 -0.0013756714 0.0030477911 -0.0051747942 -0.0036128853 0.0065633785 0.0004667927 -0.00025621935 0.0020478829 -0.0040987274 0.0034956844 -0.0075577656 -0.0011110411 0.0036786303 0.0010310574 -0.00253207 -0.0024627706 0.00080029952 -0.0013264935 0.0019120043 -0.0051211799 0.00057194929 -2.2775755e-05 0.00089667732 0.00053770078 0.0016083538 0.005640266 -0.0057410463 -0.0035777856 0.0020306262 -0.0049443603 -0.0028868066 0.00023428407 -0.0016826001 -0.0065163984 0.0011683664 -0.0016897053 0.00075552124 0.0082024038 -0.00084620464 -0.0026953502 0.0012909276 0.0031344511 0.0029148329 -0.00011681289 -6.0403931e-05 0.0001015118 0.0031262909 -0.00096935959 -0.0035332125 -0.0046407827 -0.00083596841 -0.0029170949 -9.9659024e-05 -0.0023847972 -0.0023410765 -0.00039056843 0.00059431413 0.0015079568 -0.0021763842 -0.0060833194 0.00076339947 0.0075561833 -0.0032315999 0.00023366755 -0.0024511947 0.0015043794 0.0010137404 0.0014573758 -0.0018319357 -0.0049868701 -0.00024210915 -0.001918295 0.0031680982 0.0018163578 0.00069550768 -0.0010975669 0.00058367051 -0.00022247105 -0.0005953919 0.002994797 -0.0042227656 -0.0019236524 -0.001436515 0.012609863 -0.0017748869 0.0037532162 0.0032602721 0.003513834 0.0088543957 0.0069052335 -0.0028442759 0.0043047396 0.0015285774 -0.0045465725 0.0042248019 0.0040586055 0.0032720987 -0.0032770263 -0.010489322 -0.00041697529 0.0020520294 -0.0049429634 -0.0023650688 0.0015672017 -0.0074040429 -0.00012086469 9.9259225e-05 0.00057759997 0.0013349337 0.0039195586 -0.0015138352 0.0016628659 -0.00072901184 -0.00014027325 -0.0013678382 -0.0023310271 -0.00055338122 0.0030322215 -0.0018875665 0.00084929948 -0.0058314195 0.00074437802 -0.0026366124 -0.008386136 0.0024420605 -0.0045061563 0.0018303061 -0.0026883811 0.0021923338 -0.0056480942 0.0044886088 -0.0016379232 0.0041139745 -0.0048691379 0.0035300022 -0.0047549144 -0.004298117 0.0017344061 -0.0013243729 -0.00070023187 -0.0032284847 -0.0033379472 0.0024072079 0.0031944718 0.0038765196 0.0044007003 -0.0031132733 -0.0027621335 0.0031061827 0.001219754 0.0023799606 -0.0060031912
